svm_type c_svc
kernel_type linear
nr_class 2
total_sv 760
rho 292.98817414816006
label 0 1
nr_sv 586 174
SV
0.98305520861719686 1:-127.7913 2:-82.3679 3:621.95943 4:-285.73127 5:-46.078764 6:-8.5407217 7:-150.97948 8:100.86255 9:-96.57018 10:-104.19544 11:-53.257068 12:31.487428 13:-12.297068 14:87.943856 15:128.68172 16:95.711215 17:-11.341172 18:-90.719548 19:54.340365 20:86.280231 21:4.6471974 22:10.22927 23:26.142291 24:55.844852 25:-75.326174 26:-42.819591 27:35.019881 28:14.884355 29:-4.4338012 30:-3.508997 31:20.183056 32:-21.093959 33:-5.2040364 34:19.009926 35:43.289375 36:17.202897 37:33.590159 38:7.8272151 39:-6.0718782 40:-38.654172 41:16.728663 42:8.8205194 43:10.460089 44:52.64417 45:-13.142823 46:28.552497 47:5.2834576 48:-5.7989058 49:-11.989894 50:20.284193 51:-173.86117 52:517.75216 53:-251.17979 54:127.96649 55:-184.69423 56:184.28566 57:70.978653 58:46.822636 59:-90.778767 60:-142.8879 61:-79.136284 62:51.622996 63:4.5963877 64:120.63658 65:168.0605 66:72.49519 67:-17.347062 68:47.753872 69:-31.436881 70:-55.591115 71:134.92499 72:-17.228768 73:-0.27509665 74:9.8022729 75:-71.91219 76:-17.325816 77:16.561124 78:19.244335 79:18.944818 80:12.945493 81:-33.049597 82:73.348138 83:-5.7580959 84:-7.9222188 85:16.31623 86:57.528478 87:-45.532527 88:3.129672 89:16.047091 90:51.927836 91:-10.571019 92:23.520332 93:4.5987709 94:3.8941809 95:52.617368 96:-23.759698 97:10.640538 98:-6.778593 99:34.326431 100:-11.625392 101:-184.04066 102:616.77639 103:39.896798 104:131.84043 105:48.83808 106:-94.152065 107:94.834614 108:-110.87607 109:78.989262 110:67.826616 111:4.2695846 112:-51.060718 113:-9.0613316 114:-51.611917 115:34.159983 116:-41.87396 117:-14.383927 118:49.094361 119:39.387795 120:153.49281 121:-35.805383 122:17.303709 123:-58.793877 124:-73.838576 125:-102.46375 126:-58.244079 127:26.221557 128:-18.645823 129:-11.683932 130:12.510171 131:-23.316706 132:-27.803951 133:-9.7549742 134:24.773587 135:14.119289 136:24.66746 137:44.896506 138:-6.6225658 139:-11.827013 140:36.406084 141:-8.6575326 142:10.62223 143:10.70885 144:-38.819829 145:-45.243372 146:0.63266124 147:-1.6037295 148:-3.5933048 149:14.741488 150:-20.34624 151:-119.23676 152:-246.1936 153:531.42206 154:-164.14692 155:-252.60267 156:222.65397 157:115.56187 158:3.6187506 159:-44.074749 160:-131.00595 161:-173.4533 162:-119.72794 163:-17.281438 164:-64.413561 165:-33.025383 166:-35.457655 167:-16.328001 168:23.090306 169:-11.776338 170:-105.15102 171:33.418936 172:-10.03644 173:-95.6411 174:-11.53442 175:0.28708169 176:-12.503116 177:13.05618 178:-67.705979 179:-16.671477 180:18.503876 181:-28.549927 182:-30.661197 183:15.532256 184:-37.518085 185:19.604789 186:11.03835 187:46.086402 188:-28.9514 189:-7.7798428 190:13.554635 191:31.640118 192:0.67388082 193:11.811146 194:10.407973 195:-48.119863 196:-27.468399 197:7.7193497 198:20.202848 199:34.863062 200:-58.490448 201:-143.80924 202:101.43182 203:587.92091 204:-253.49708 205:72.026407 206:-157.01686 207:-216.51932 208:74.012366 209:-53.406407 210:1.2772604 211:56.627265 212:71.330881 213:-16.812104 214:50.327167 215:-128.50255 216:54.255681 217:0.58079726 218:57.338597 219:40.593093 220:68.893679 221:-14.348451 222:1.8575129 223:45.912463 224:3.1777237 225:17.640878 226:43.718482 227:18.437961 228:-101.6912 229:11.777384 230:4.4714445 231:-15.414716 232:12.627056 233:26.075957 234:-57.303331 235:-19.788678 236:-11.040375 237:-60.372394 238:1.0343986 239:-6.0184032 240:57.260514 241:-27.355407 242:-18.76814 243:-23.578939 244:-43.632807 245:14.050073 246:12.612476 247:7.3175411 248:31.374269 249:-17.211081 250:-5.2207221 
0.025206912283353314 1:-137.91438 2:40.265482 3:603.088 4:-267.35346 5:34.218355 6:-109.32615 7:-198.7859 8:85.058228 9:-69.733325 10:-35.854181 11:19.315837 12:59.381555 13:-12.938632 14:65.842698 15:-45.434026 16:74.440581 17:-6.4800723 18:7.9928774 19:57.377494 20:98.940486 21:-15.387249 22:5.4569724 23:55.687989 24:43.127122 25:-23.039789 26:22.792642 27:56.149142 28:-123.4092 29:9.8711639 30:-2.0648381 31:7.3146735 32:6.625049 33:33.043499 34:-65.460547 35:-14.663936 36:15.34196 37:-82.775116 38:29.848333 39:-21.276286 40:17.715088 41:-14.168695 42:-11.473919 43:26.419431 44:13.53111 45:53.676003 46:-17.727727 47:-7.8164833 48:-26.552677 49:37.610198 50:-4.1587952 51:-127.91039 52:-82.867417 53:621.80345 54:-285.91728 55:-46.493055 56:-8.2742825 57:-151.35296 58:101.34399 59:-96.854037 60:-104.12051 61:-52.773535 62:32.367115 63:-12.657283 64:88.888492 65:131.16961 66:95.47284 67:-11.318164 68:-90.241266 69:51.74188 70:86.660514 71:6.5773416 72:10.023579 73:25.483656 74:54.340605 75:-75.793108 76:-45.451875 77:35.571063 78:17.850836 79:-4.7792504 80:-3.8525436 81:20.810491 82:-21.384285 83:-5.9945991 84:19.285696 85:49.974123 86:17.539815 87:35.335295 88:9.1518275 89:-2.0580873 90:-36.634963 91:20.543787 92:7.2714256 93:8.9916166 94:49.722181 95:-2.8066514 96:29.924945 97:-1.823772 98:-9.0568933 99:-5.6138111 100:19.078094 101:-128.36201 102:-83.616426 103:621.52732 104:-286.45697 105:-45.403641 106:-7.5575604 107:-151.37491 108:101.47765 109:-96.139418 110:-103.89698 111:-52.706569 112:32.346213 113:-14.158446 114:88.340639 115:131.12993 116:94.438312 117:-9.6845072 118:-89.348231 119:53.408467 120:87.925623 121:6.5727375 122:10.307727 123:23.651566 124:53.836219 125:-77.868765 126:-44.380877 127:35.376087 128:12.985071 129:-6.6376164 130:-1.1995712 131:16.034572 132:-21.87184 133:-5.5218203 134:20.251429 135:47.685988 136:22.370462 137:33.868436 138:7.2563336 139:-9.0748231 140:-40.451184 141:16.923112 142:7.8768516 143:3.7576436 144:48.103493 145:-11.960487 146:28.846285 147:5.6708845 148:-6.6994161 149:-20.95672 150:10.328623 151:-128.25048 152:-83.507334 153:621.91403 154:-286.33728 155:-46.497146 156:-8.2975419 157:-151.21893 158:101.26614 159:-96.766155 160:-104.17303 161:-52.779579 162:32.208349 163:-14.620761 164:88.356699 165:131.06092 166:94.587876 167:-10.095233 168:-89.216938 169:51.935136 170:88.095356 171:5.7662437 172:10.224065 173:25.460756 174:53.627366 175:-75.70495 176:-44.66794 177:35.570843 178:13.734949 179:-4.814714 180:-2.5376179 181:17.15628 182:-21.187665 183:-5.9946601 184:22.305477 185:47.032105 186:18.833259 187:34.497245 188:5.1903298 189:-5.0922605 190:-40.864157 191:17.402534 192:8.4891437 193:6.5067735 194:48.082595 195:-11.063743 196:27.748675 197:5.0988053 198:-3.5630701 199:-12.216687 200:16.783735 201:-138.59721 202:39.466559 203:603.23338 204:-268.00797 205:33.885717 206:-109.26317 207:-198.99066 208:85.426937 209:-69.912652 210:-35.746869 211:19.829138 212:60.030357 213:-15.928746 214:66.414874 215:-44.56108 216:74.282513 217:-4.6884861 218:9.5066624 219:56.104268 220:101.3462 221:-13.634324 222:5.3709152 223:54.579732 224:40.656269 225:-24.685185 226:21.600313 227:55.255687 228:-123.81215 229:10.01729 230:-0.85051675 231:6.2586123 232:5.4721742 233:32.595985 234:-63.190733 235:-11.523722 236:12.558104 237:-80.630253 238:25.744466 239:-21.425539 240:18.026696 241:-13.033587 242:-12.954814 243:21.73153 244:13.514668 245:56.891039 246:-17.411049 247:-7.7896616 248:-25.633252 249:37.063496 250:-6.2991699 
0.079747169718935515 1:-161.54364 2:385.19014 3:-330.19353 4:33.927543 5:-277.95582 6:263.70537 7:-51.945032 8:152.30406 9:-167.45447 10:-161.26052 11:-13.563381 12:132.61958 13:2.9866707 14:139.68517 15:74.648957 16:52.459227 17:-18.893187 18:123.42957 19:43.86739 20:49.306398 21:-46.482952 22:12.629013 23:-36.909595 24:-21.399101 25:99.804384 26:6.9448634 27:-9.7598107 28:6.9584657 29:-32.150585 30:-7.7834193 31:45.213138 32:-55.25482 33:4.8526988 34:-31.295032 35:16.005805 36:-35.887085 37:42.832285 38:24.145246 39:10.29899 40:-5.4093535 41:51.622871 42:-44.785599 43:13.682475 44:-21.215159 45:49.397429 46:-19.080462 47:1.233068 48:-10.696923 49:38.091923 50:-2.7732591 51:-114.90593 52:-81.064976 53:-431.36899 54:-374.91571 55:-317.70684 56:91.301508 57:-315.80068 58:108.51346 59:-18.205978 60:141.19949 61:139.01301 62:-11.475133 63:2.5263245 64:-93.390604 65:91.43564 66:-92.928233 67:-18.429144 68:96.367444 69:51.607277 70:-63.760998 71:1.4788048 72:0.89957024 73:16.523585 74:-54.888312 75:-77.145599 76:59.18402 77:-10.884167 78:40.898273 79:21.394871 80:10.084841 81:0.89949365 82:51.447667 83:24.646452 84:-74.70114 85:15.257993 86:31.986474 87:28.235258 88:-29.756095 89:-27.328199 90:8.3195409 91:-7.5876946 92:-51.547016 93:37.936425 94:-28.918269 95:-25.115938 96:0.17426295 97:-10.398142 98:8.3992089 99:-24.918301 100:-1.2792509 101:-166.01449 102:433.65386 103:-308.35888 104:68.622007 105:-252.70216 106:245.65215 107:-9.2634771 108:121.90296 109:-149.59395 110:-167.52045 111:-40.197506 112:116.51308 113:5.9571068 114:156.33375 115:137.01889 116:75.193028 117:-24.94255 118:137.28282 119:30.200573 120:21.690157 121:34.030876 122:0.42000345 123:-28.438347 124:-26.646666 125:75.086939 126:39.892928 127:-16.41928 128:-58.899452 129:-6.8632079 130:6.0006097 131:0.26857491 132:-17.074237 133:-8.9667015 134:27.004817 135:-15.898407 136:-68.203769 137:27.183811 138:14.577815 139:6.6650554 140:-51.633197 141:1.9913096 142:-48.136019 143:2.7005156 144:-5.4753495 145:-17.877268 146:7.9571407 147:-6.5200337 148:-16.011342 149:-0.43876186 150:44.48825 151:-166.0079 152:433.63036 153:-308.31941 154:68.84952 155:-252.70455 156:245.72686 157:-9.1443155 158:121.96658 159:-149.75522 160:-167.68126 161:-39.956766 162:117.14337 163:5.9553071 164:156.86698 165:138.15769 166:74.710096 167:-25.119343 168:138.25497 169:29.238671 170:22.14001 171:34.060781 172:0.39850693 173:-25.619434 174:-28.434413 175:73.801802 176:41.224763 177:-17.167656 178:-57.002754 179:-4.8399325 180:5.3544702 181:1.742456 182:-15.244434 183:-9.8797388 184:31.149246 185:-13.146287 186:-66.169127 187:26.261283 188:14.645584 189:7.6726726 190:-52.116258 191:-0.06345219 192:-50.226866 193:2.1572079 194:-11.000698 195:-16.571059 196:7.0996221 197:-7.2203743 198:-11.527208 199:-4.5251621 200:46.416397 201:-166.07827 202:433.58119 203:-308.58289 204:68.541529 205:-252.82315 206:245.65867 207:-9.3240496 208:122.1898 209:-149.86821 210:-167.28047 211:-39.41537 212:117.21821 213:6.0782695 214:156.86095 215:138.39428 216:74.762723 217:-24.939629 218:137.3407 219:29.531022 220:20.965904 221:34.283438 222:0.4066788 223:-28.049967 224:-28.957337 225:73.216524 226:40.146412 227:-17.247796 228:-56.229005 229:-5.8118391 230:5.9977932 231:1.5543849 232:-16.976351 233:-10.774528 234:30.601308 235:-15.98348 236:-65.518013 237:27.472966 238:17.519046 239:8.626669 240:-45.948013 241:3.6179616 242:-47.397959 243:4.6748253 244:-10.404553 245:-15.16129 246:5.9996222 247:-7.3502032 248:-11.756694 249:-9.0426904 250:42.09341 
0.029647804316377646 1:-103.11903 2:-210.17916 3:-396.4174 4:-488.67688 5:-119.39224 6:-235.99692 7:-43.263826 8:-216.26096 9:185.46481 10:119.23479 11:-85.380161 12:-144.61265 13:10.215895 14:-11.157005 15:-33.418595 16:96.848562 17:22.151522 18:-102.11088 19:-47.478697 20:74.85816 21:127.07883 22:-14.151217 23:-15.52062 24:-20.842497 25:-13.246692 26:2.6623282 27:-44.161129 28:-2.0130468 29:-0.8079946 30:23.782183 31:-64.007042 32:14.936767 33:5.604593 34:-30.051929 35:-33.417781 36:-8.0775475 37:-28.421459 38:-0.63640539 39:-0.71597615 40:-46.926541 41:11.762494 42:38.52946 43:-10.909992 44:-3.7209705 45:-13.480418 46:-9.3754632 47:-3.0897226 48:-15.430016 49:-8.7739978 50:-11.568155 51:-114.8754 52:-81.159925 53:-431.71738 54:-374.85803 55:-317.55178 56:91.62783 57:-315.61107 58:108.58732 59:-18.152692 60:141.34644 61:139.22596 62:-11.278705 63:2.5743633 64:-93.473767 65:91.664807 66:-93.022081 67:-18.680929 68:96.776801 69:51.548441 70:-63.62818 71:1.5220604 72:0.88848926 73:16.972313 74:-53.890912 75:-77.210091 76:59.334523 77:-10.648172 78:41.437633 79:21.359061 80:7.2044348 81:0.23476773 82:49.357456 83:26.10089 84:-75.713772 85:13.579556 86:30.947406 87:29.362705 88:-28.791599 89:-27.378675 90:9.892643 91:-5.9702429 92:-48.008727 93:37.876342 94:-30.91206 95:-23.224675 96:-0.74616124 97:-6.9316799 98:11.303025 99:-29.763169 100:-1.31224 101:-166.14179 102:435.10481 103:328.9258 104:-43.873403 105:158.28133 106:-247.95648 107:-94.623006 108:-61.462146 109:76.442078 110:167.92131 111:161.37678 112:53.31785 113:-8.3291515 114:-22.466414 115:189.74255 116:-102.55514 117:-7.3618839 118:-26.243301 119:-111.06207 120:-82.596457 121:37.484296 122:-5.3834637 123:-5.0009196 124:34.784041 125:38.148411 126:-12.143119 127:22.665559 128:-63.925241 129:-5.9397828 130:-1.7579931 131:-11.55963 132:-10.512418 133:9.3176131 134:11.344721 135:9.2208146 136:-39.839922 137:32.525032 138:-66.551547 139:-51.468467 140:-21.250721 141:1.0779542 142:4.3066387 143:5.3537079 144:-9.6108773 145:46.279242 146:-22.724406 147:10.98628 148:6.2965109 149:18.193484 150:-13.181701 151:-128.22435 152:-83.419719 153:622.17806 154:-286.12729 155:-46.241188 156:-8.4249768 157:-151.22522 158:101.25269 159:-96.690542 160:-104.101 161:-52.798524 162:32.151824 163:-14.692521 164:88.524179 165:131.1426 166:95.083946 167:-10.200156 168:-89.184584 169:52.105553 170:86.706436 171:6.6424669 172:10.035153 173:24.942281 174:53.30397 175:-76.624854 176:-44.953597 177:36.665376 178:13.571567 179:-5.2695795 180:-2.5942346 181:17.690394 182:-20.529346 183:-4.5757772 184:21.279915 185:47.04166 186:18.092601 187:34.110128 188:7.7597353 189:-3.2111647 190:-41.438163 191:14.576464 192:8.2130856 193:6.5348937 194:49.336659 195:-12.904706 196:28.331286 197:4.4731432 198:-3.491166 199:-12.20641 200:18.852951 201:-105.7959 202:-361.4159 203:214.65135 204:212.75845 205:-364.24521 206:237.62559 207:321.81168 208:-192.07615 209:127.48228 210:181.45492 211:167.27866 212:76.828162 213:-11.391214 214:23.132834 215:69.609914 216:-2.9453659 217:-5.0506812 218:-91.893367 219:-6.9340387 220:-36.940235 221:-67.465671 222:13.115867 223:-37.077031 224:-100.91629 225:8.2073112 226:-15.530252 227:-19.242695 228:35.859732 229:-2.9681291 230:3.9782165 231:17.073763 232:-26.653726 233:-13.128014 234:53.008581 235:-4.6248717 236:-13.718953 237:-11.179443 238:25.795959 239:-36.618093 240:-73.34146 241:-5.2349854 242:14.267913 243:34.803697 244:31.618837 245:12.670258 246:-10.126694 247:-5.6688865 248:-25.273529 249:19.594932 250:-13.504375 
0.049069057900551549 1:-190.85859 2:658.51188 3:-74.470383 4:178.875 5:-25.934375 6:-2.4359364 7:147.83609 8:-98.391737 9:45.873366 10:-10.337923 11:-74.06687 12:-77.209513 13:-4.9041889 14:-40.644292 15:-91.843567 16:19.575157 17:8.2282908 18:-50.667831 19:32.488884 20:-33.141809 21:-23.450503 22:1.4029285 23:19.319248 24:34.371226 25:16.873074 26:17.997206 27:1.5063017 28:3.3448176 29:1.1979687 30:-4.5998083 31:14.473919 32:4.792949 33:-0.58792465 34:-5.9653558 35:-14.797898 36:-3.3657516 37:-2.521078 38:3.0772934 39:-4.3283242 40:-1.8573561 41:10.358146 42:0.95772555 43:8.1801315 44:6.2814108 45:8.5055449 46:1.53761 47:-6.1098954 48:-10.917546 49:8.3526874 50:3.6782072 51:-111.02665 52:-128.04753 53:-432.13019 54:-429.14339 55:-276.63489 56:-2.608744 57:-273.04331 58:16.214742 59:60.657607 60:182.69781 61:90.679642 62:-93.429033 63:0.95759638 64:-127.03514 65:60.140329 66:-61.987109 67:-18.222567 68:73.703473 69:146.20396 70:-20.597564 71:-79.69418 72:16.31301 73:-67.260605 74:77.760143 75:32.898874 76:7.9580594 77:25.625562 78:-24.165607 79:-6.6131408 80:2.3067818 81:1.9990353 82:28.431706 83:-33.400982 84:73.183394 85:-39.92843 86:26.592423 87:4.9432866 88:8.5009758 89:36.095409 90:7.6904943 91:-0.0356088 92:40.510737 93:-17.933644 94:49.134765 95:3.9302185 96:-5.0385397 97:19.12166 98:18.426506 99:1.7032912 100:-39.492674 101:-103.10473 102:-211.033 103:-396.40998 104:-489.48945 105:-119.40547 106:-235.90187 107:-44.012197 108:-215.79524 109:185.19905 110:119.21145 111:-84.644908 112:-143.38344 113:10.69098 114:-10.197293 115:-31.720389 116:96.241521 117:22.316607 118:-101.45254 119:-49.413984 120:75.488591 121:128.63772 122:-14.335034 123:-16.291454 124:-23.520596 125:-12.538611 126:1.8250907 127:-44.983263 128:-3.0682708 129:-0.7581563 130:25.515435 131:-68.585748 132:16.521309 133:3.7195586 134:-27.929287 135:-28.153651 136:-2.9325432 137:-28.819406 138:-0.94130556 139:0.002553823 140:-49.822013 141:10.086183 142:36.904057 143:-16.116005 144:-6.4773491 145:-11.310038 146:-8.0624222 147:-2.1637787 148:-18.632216 149:-15.228309 150:-13.704203 151:-109.24426 152:-149.39195 153:-426.07253 154:-447.09572 155:-245.24274 156:-52.145744 157:-233.96772 158:-33.437338 159:94.826202 160:183.33871 161:57.049316 162:-117.40632 163:0.83202391 164:-120.05743 165:27.285233 166:-35.691135 167:-9.4101966 168:23.581759 169:123.15972 170:20.486218 171:-72.894649 172:18.662106 173:-87.664299 174:96.71128 175:71.745746 176:-16.512048 177:10.47037 178:-22.38209 179:-15.747217 180:-5.4462743 181:27.858583 182:-16.271803 183:-19.920134 184:42.340304 185:15.443189 186:-35.422719 187:15.402852 188:9.447922 189:37.597916 190:1.1711593 191:-53.379407 192:-17.882085 193:-26.445862 194:32.462641 195:-10.441841 196:22.442312 197:4.0739582 198:16.004552 199:-26.136886 200:-40.895569 201:-166.13589 202:434.83055 203:328.62307 204:-44.037461 205:158.02994 206:-247.86689 207:-94.711071 208:-61.420591 209:76.29125 210:167.83241 211:161.46396 212:53.514357 213:-8.223754 214:-22.135426 215:190.52859 216:-102.45905 217:-7.3143876 218:-26.876006 219:-111.60328 220:-81.239478 221:38.188701 222:-5.3679352 223:-5.6447157 224:34.961376 225:37.14296 226:-12.514726 227:22.326262 228:-65.862608 229:-5.8823106 230:-1.7883971 231:-10.539227 232:-13.179832 233:7.031803 234:10.312976 235:10.284624 236:-40.156336 237:31.647825 238:-66.152862 239:-51.49376 240:-20.219884 241:0.70473238 242:2.6423742 243:4.2277018 244:-9.0048623 245:51.711587 246:-24.320191 247:12.565625 248:9.3143543 249:16.14914 250:-17.236847 
0.016354275683585048 1:-161.43935 2:384.90891 3:-330.24282 4:33.860697 5:-278.06569 6:263.7925 7:-51.978579 8:152.26687 9:-167.40564 10:-161.15869 11:-13.297136 12:132.84706 13:2.9798648 14:139.98293 15:75.11548 16:52.633319 17:-17.756695 18:124.55793 19:44.601721 20:49.588558 21:-46.680296 22:10.220257 23:-37.425612 24:-20.844117 25:100.04214 26:7.4519316 27:-9.8866354 28:6.6343063 29:-31.669108 30:-13.489742 31:43.286 32:-55.672258 33:11.255028 34:-28.969475 35:17.22178 36:-35.121715 37:44.716491 38:24.490945 39:10.723257 40:-7.8035717 41:53.482448 42:-46.691279 43:14.305617 44:-22.84042 45:51.584823 46:-19.127508 47:2.7596671 48:-6.5419564 49:34.195786 50:-2.9659415 51:-174.01886 52:518.1115 53:-250.78373 54:128.49972 55:-184.6335 56:184.25681 57:71.559851 58:46.373142 59:-90.452397 60:-143.04167 61:-79.667431 62:50.987501 63:4.0616733 64:120.21701 65:167.74309 66:72.82048 67:-17.278333 68:47.051504 69:-30.44619 70:-57.579035 71:134.59576 72:-17.505915 73:-0.3245837 74:10.406673 75:-70.706332 76:-16.209335 77:15.649372 78:19.506978 79:18.602246 80:11.952839 81:-31.316568 82:70.962423 83:-0.37962307 84:-8.9220721 85:17.758063 86:57.254187 87:-45.316683 88:7.2865227 89:17.446132 90:50.399333 91:-13.363065 92:24.454118 93:10.047866 94:7.8804656 95:53.888363 96:-21.534294 97:5.512963 98:-2.5881803 99:35.21413 100:-9.8981614 101:-142.1773 102:175.78065 103:-407.80428 104:-149.11567 105:-355.52864 106:264.95004 107:-227.59711 108:212.63417 109:-168.71447 110:-55.485736 111:96.74295 112:122.2441 113:2.5707442 114:15.937166 115:-126.31315 116:-37.714033 117:29.956869 118:-103.43982 119:-101.25463 120:45.988949 121:-32.490284 122:2.5435184 123:2.6757409 124:-8.7693852 125:-17.531111 126:-84.160489 127:23.886619 128:0.95318406 129:-21.270031 130:2.6075396 131:-45.817118 132:-17.299005 133:-4.1383599 134:31.110823 135:-41.771937 136:5.4738545 137:-12.612217 138:-41.879943 139:-53.279014 140:22.809369 141:-14.333741 142:-65.868241 143:-11.214606 144:25.325362 145:-8.4148089 146:-15.252516 147:6.6754682 148:18.966578 149:16.076998 150:-15.188712 151:-174.00878 152:517.6543 153:-250.54476 154:128.21713 155:-184.5761 156:184.02468 157:71.228323 158:46.497546 159:-90.527509 160:-142.95564 161:-79.496973 162:51.088998 163:4.047517 164:120.3017 165:168.43125 166:72.612475 167:-17.595435 168:47.694095 169:-31.253718 170:-54.85898 171:135.1809 172:-17.229439 173:0.23310595 174:7.8077833 175:-72.451287 176:-17.088985 177:16.596195 178:18.193879 179:19.291638 180:12.408372 181:-32.593071 182:73.322855 183:-3.0792019 184:-7.33303 185:18.746223 186:54.613683 187:-44.871042 188:6.6294663 189:19.658925 190:47.560795 191:-10.553096 192:24.296759 193:3.2786936 194:2.5963877 195:53.506369 196:-23.315506 197:5.7768907 198:-2.5751057 199:31.634229 200:-9.7086435 201:-126.48743 202:-121.04724 203:616.03659 204:-276.34718 205:-88.38346 206:42.67534 207:-105.38302 208:92.382836 209:-96.985838 210:-129.6376 211:-97.252768 212:-5.7032303 213:-14.546308 214:66.215506 215:138.32854 216:89.128464 217:-7.1683283 218:-143.27284 219:53.024108 220:-14.37988 221:-9.045859 222:10.287603 223:12.718477 224:69.497344 225:6.9654785 226:0.84680067 227:-28.539212 228:85.708281 229:-8.3430352 230:-14.161162 231:20.934128 232:-7.1501049 233:-12.628623 234:19.160997 235:-72.417164 236:-27.401965 237:24.600387 238:-7.3632213 239:-9.6208119 240:33.58668 241:-2.2352419 242:17.942686 243:5.4410806 244:-47.879147 245:-30.725199 246:-0.81318142 247:0.83286838 248:5.6554978 249:-4.8491701 250:-2.3115147 
0.0089736727998630528 1:-191.21899 2:658.91161 3:-74.623786 4:179.11339 5:-25.600223 6:-2.586151 7:148.60896 8:-98.954656 9:46.417089 10:-10.170167 11:-74.660053 12:-78.473239 13:-7.1285493 14:-42.044393 15:-93.480859 16:19.431507 17:9.426017 18:-50.475686 19:35.104004 20:-32.842209 21:-24.531255 22:1.6545487 23:18.993257 24:36.240561 25:15.412873 26:20.491672 27:1.5735219 28:0.064761888 29:0.87571385 30:-4.1183245 31:14.53558 32:3.9962823 33:1.7378734 34:-6.6550648 35:-24.306831 36:-3.4872021 37:-4.431699 38:1.4185246 39:-9.3580985 40:-1.4114294 41:7.6114117 42:4.6772393 43:11.819627 44:8.3859757 45:-3.8573117 46:-1.5710665 47:-0.36810248 48:-8.6139074 49:7.0850092 50:2.8750051 51:-191.203 52:658.36901 53:-74.379628 54:178.79807 55:-25.425888 56:-2.4967131 57:148.04481 58:-98.49473 59:46.159782 60:-10.034874 61:-73.851144 62:-77.42225 63:-6.9811443 64:-41.460415 65:-92.77924 66:19.115318 67:9.4861853 68:-49.590216 69:33.405961 70:-33.27722 71:-23.888264 72:1.4721156 73:19.10117 74:35.04642 75:15.490051 76:18.613567 77:2.5595733 78:1.4864216 79:0.36380582 80:-3.9018342 81:13.302041 82:2.8477942 83:0.94397304 84:-5.4027454 85:-21.524177 86:-3.8568522 87:-3.373832 88:3.3168955 89:-7.1547862 90:-2.4293803 91:5.6441457 92:4.1765269 93:9.3717365 94:6.0253328 95:-3.2596131 96:0.3327523 97:-0.65662215 98:-6.8385362 99:4.2553157 100:3.762021 101:-113.85362 102:-307.78722 103:425.33493 104:-38.49014 105:-331.69742 106:288.8479 107:247.72284 108:-79.018766 109:23.182437 110:-41.037533 111:-100.62951 112:-102.62517 113:-16.200659 114:-86.396394 115:-31.66794 116:-86.273262 117:-12.595618 118:96.70809 119:-37.060538 120:105.02096 121:4.6929025 122:0.24337193 123:96.721245 124:23.847721 125:20.117639 126:40.729015 127:-48.299211 128:57.449584 129:27.649495 130:-10.861827 131:2.1440541 132:4.725746 133:-6.381013 134:55.119077 135:22.667212 136:66.459915 137:-33.004229 138:-2.262591 139:-19.078472 140:-3.309027 141:-32.640378 142:-15.552347 143:26.23151 144:3.8785005 145:32.897578 146:-30.433749 147:8.9889838 148:15.972344 149:23.762589 150:-27.156781 151:-109.99371 152:-334.90338 153:339.28742 154:63.370596 155:-357.59499 156:287.56866 157:299.96895 158:-132.74744 159:71.82348 160:51.949195 161:4.7015259 162:-37.700307 163:-13.526177 164:-50.254438 165:48.048333 166:-68.485653 167:-7.3207082 168:0.52415489 169:-33.978744 170:118.44423 171:-58.826371 172:14.51616 173:152.64859 174:1.6308029 175:66.251646 176:56.877737 177:-11.904826 178:-13.981185 179:16.277421 180:5.5059049 181:-57.052795 182:51.315557 183:-0.015390319 184:11.687219 185:37.832702 186:7.2200308 187:54.585782 188:-95.397869 189:-27.884398 190:32.240516 191:-26.694957 192:43.22244 193:11.796955 194:25.518179 195:36.589977 196:11.480502 197:2.6458482 198:1.4775375 199:-1.2787504 200:7.5354272 201:-126.35279 202:-121.25441 203:615.81007 204:-276.1305 205:-88.29755 206:42.912786 207:-105.21729 208:92.369481 209:-96.910335 210:-129.66091 211:-97.068942 212:-5.368249 213:-14.449998 214:66.32018 215:139.34086 216:88.752747 217:-7.2867643 218:-142.94197 219:53.029409 220:-14.860369 221:-8.9204184 222:10.336352 223:12.443684 224:69.720759 225:5.8366659 226:0.50203952 227:-28.501734 228:86.916652 229:-8.2819384 230:-14.408735 231:21.562441 232:-8.26946 233:-15.202481 234:16.06181 235:-73.894308 236:-28.02702 237:25.905635 238:-9.8202394 239:-12.700864 240:40.631913 241:-1.7625943 242:18.306348 243:7.3890542 244:-47.991527 245:-31.215734 246:-3.8164682 247:0.8063732 248:9.534447 249:-6.6631514 250:-2.0508844 
0.13167788890447368 1:-102.50236 2:-394.76396 3:35.567765 4:479.78056 5:-262.94263 6:-50.811979 7:78.839784 8:-155.31791 9:80.403373 10:176.93464 11:206.99515 12:136.63035 13:-28.401272 14:75.365619 15:-103.62169 16:56.474669 17:-8.3382005 18:110.89369 19:-2.8269275 20:8.2695913 21:113.3453 22:-22.058832 23:0.16767192 24:140.57276 25:-12.611153 26:-24.52033 27:16.096584 28:-4.3792327 29:-23.664402 30:2.0953777 31:0.48842334 32:-46.516693 33:14.025102 34:-32.103291 35:-10.281893 36:25.430223 37:35.743303 38:2.665136 39:-4.6460413 40:17.7335 41:42.898377 42:8.3273631 43:20.741512 44:39.332804 45:-52.833521 46:14.925174 47:-5.0962407 48:-14.842414 49:13.234522 50:11.065942 51:-102.5563 52:-395.04638 53:35.620687 54:479.67085 55:-263.01881 56:-50.748647 57:78.894201 58:-155.29473 59:80.400235 60:176.97699 61:206.82406 62:136.46461 63:-28.348794 64:75.157001 65:-103.57387 66:56.457795 67:-9.4886081 68:109.53881 69:-3.4168774 70:7.7304297 71:113.7775 72:-20.360965 73:-0.89143462 74:138.34687 75:-13.674463 76:-25.548373 77:15.109246 78:-4.3312005 79:-23.722444 80:3.8008523 81:-0.90595785 82:-47.687466 83:12.719328 84:-31.26392 85:-7.356284 86:28.388662 87:35.24595 88:2.3199516 89:-5.8832537 90:14.933427 91:40.67629 92:9.6870726 93:21.061988 94:41.433667 95:-50.912467 96:12.458536 97:-0.88848437 98:-12.865348 99:6.629703 100:9.0278836 101:-102.55935 102:-395.18308 103:35.711392 104:479.60618 105:-263.10546 106:-50.648557 107:78.798172 108:-155.14451 109:80.219044 110:176.74218 111:206.75852 112:136.69469 113:-28.361792 114:75.595204 115:-103.25766 116:56.758408 117:-9.8283731 118:110.9045 119:-3.1064917 120:8.8685307 121:114.44319 122:-20.205108 123:-0.58552511 124:139.56849 125:-13.396669 126:-25.331172 127:15.491527 128:-5.078659 129:-23.854605 130:3.7554214 131:-0.58182554 132:-47.651864 133:12.638134 134:-31.372162 135:-6.3024878 136:28.011985 137:36.878747 138:2.0407223 139:-3.8394102 140:14.958964 141:41.58013 142:6.5865346 143:19.057639 144:39.097592 145:-51.63466 146:12.370071 147:-0.056564978 148:-11.842677 149:5.5420595 150:9.1569431 151:-110.69917 152:-258.63254 153:-92.446664 154:362.68154 155:17.840794 156:-244.26276 157:-206.19295 158:64.481826 159:-74.901042 160:-111.64483 161:-126.13576 162:-84.538203 163:-20.955356 164:-55.01987 165:24.708041 166:-62.104905 167:-10.910569 168:18.055358 169:-44.399342 170:18.650552 171:-7.2678301 172:-3.1562724 173:31.461847 174:-2.7388888 175:24.546176 176:-8.8301467 177:9.9166027 178:3.3913673 179:-10.801259 180:-8.0914893 181:-18.174979 182:6.3629187 183:-3.9763728 184:-4.2771365 185:-5.6753952 186:-7.5896575 187:12.377129 188:12.072893 189:7.9325721 190:-2.697977 191:5.4913223 192:5.5151561 193:1.5670086 194:3.5967837 195:-6.2502818 196:2.138401 197:2.8603821 198:-10.666144 199:0.95872645 200:5.3129493 201:-110.68476 202:-258.65117 203:-92.439445 204:362.60022 205:17.956459 206:-244.37197 207:-206.35396 208:64.624803 209:-75.072525 210:-111.77533 211:-125.9986 212:-84.13079 213:-20.931055 214:-54.53674 215:23.873849 216:-61.539115 217:-10.732475 218:18.077775 219:-44.545836 220:18.642874 221:-7.154068 222:-3.2595447 223:31.581255 224:-2.6704981 225:25.289148 226:-9.1007037 227:10.432844 228:3.2935115 229:-11.146269 230:-8.2033514 231:-18.126276 232:6.9182847 233:-2.1492182 234:-4.9934137 235:-5.3773177 236:-7.4801849 237:10.799405 238:14.291111 239:9.6651666 240:-2.3335344 241:3.6135024 242:5.4095447 243:0.93820362 244:2.2534002 245:-6.679522 246:2.0836518 247:1.620147 248:-7.900522 249:0.85484352 250:2.5070596 
0.030374301092656323 1:-190.7395 2:659.0114 3:-74.314401 4:179.06101 5:-25.520085 6:-2.7023757 7:148.20957 8:-98.873173 9:46.157223 10:-10.412854 11:-74.550403 12:-78.0892 13:-4.5439738 14:-41.588928 15:-94.331466 16:19.813532 17:8.205283 18:-51.146112 19:35.087369 20:-33.522093 21:-25.380647 22:1.6086193 23:19.977884 24:35.875472 25:17.340008 26:20.62949 27:0.9551192 28:0.37833598 29:1.543418 30:-4.2562618 31:13.846484 32:5.0832749 33:0.20263803 34:-6.241126 35:-21.482647 36:-3.7026701 37:-4.2662134 38:1.752681 39:-8.3421151 40:-3.8765649 41:6.5430218 42:2.5068194 43:9.6486037 44:9.2033994 45:-1.8306264 46:0.16516222 47:0.99733425 48:-7.6595589 49:1.9766041 50:4.8843065 51:-191.15286 52:658.09264 53:-74.596042 54:178.25184 55:-25.751309 56:-2.6057795 57:147.65496 58:-98.282115 59:45.899436 60:-10.21762 61:-73.759464 62:-77.053783 63:-6.6548721 64:-40.843157 65:-92.198249 66:19.087235 67:9.6495782 68:-49.67807 69:32.657615 70:-31.715603 71:-23.547517 72:1.4955302 73:18.771824 74:33.656532 75:15.968181 76:18.931986 77:1.7219962 78:-0.90055847 79:0.99701944 80:-2.8308422 81:10.768256 82:4.8178413 83:-0.1030102 84:-4.3045613 85:-19.910794 86:-0.48466728 87:-5.0112006 88:0.093656256 89:-9.2367993 90:-3.9417478 91:5.7423469 92:3.0999 93:7.5458731 94:6.7133251 95:-1.1733358 96:-0.47415921 97:1.8667528 98:-9.8323584 99:3.2837406 100:1.3763241 101:-180.74871 102:588.21459 103:100.08205 104:102.19245 105:82.064497 106:-137.00807 107:61.66247 108:-110.49362 109:89.13743 110:101.2352 111:42.797754 112:-32.766224 113:-8.857492 114:-48.176153 115:110.66765 116:-62.346034 117:-20.760227 118:71.457032 119:35.784205 120:188.03029 121:-28.537092 122:20.187439 123:-64.855794 124:-77.444276 125:-108.91217 126:-47.718411 127:-10.034249 128:41.498323 129:-4.5954254 130:1.3148511 131:6.3137138 132:-16.641726 133:-5.8546938 134:-10.90613 135:-56.624731 136:-38.397833 137:25.666914 138:-17.139533 139:-22.127859 140:89.959535 141:-7.6912026 142:16.056676 143:21.976274 144:4.8050319 145:-29.298461 146:6.019087 147:-4.4139374 148:-3.0319009 149:27.785688 150:-19.525538 151:-148.80889 152:162.33108 153:566.4569 154:-233.19146 155:104.20011 156:-197.40064 157:-222.72767 158:57.264408 159:-32.817937 160:41.380228 161:93.839118 162:80.48521 163:-18.472168 164:32.394417 165:-184.99413 166:27.769529 167:5.893588 168:82.276259 169:10.155104 170:3.0379613 171:-10.932368 172:-5.742282 173:10.181851 174:-65.709779 175:41.870843 176:32.113886 177:-42.248201 178:27.832099 179:8.0823586 180:12.063557 181:-24.195244 182:15.067382 183:-13.088602 184:30.352332 185:14.43051 186:-18.360887 187:27.058813 188:-22.457207 189:0.29092082 190:-17.507585 191:8.4283262 192:12.457006 193:-6.5211408 194:12.902703 195:-15.336536 196:3.8859694 197:-1.6813277 198:-11.652053 199:3.7586269 200:-5.7779044 201:-138.59721 202:39.466559 203:603.23338 204:-268.00797 205:33.885717 206:-109.26317 207:-198.99066 208:85.426937 209:-69.912652 210:-35.746869 211:19.829138 212:60.030357 213:-15.928746 214:66.414874 215:-44.56108 216:74.282513 217:-4.6884861 218:9.5066624 219:56.104268 220:101.3462 221:-13.634324 222:5.3709152 223:54.579732 224:40.656269 225:-24.685185 226:21.600313 227:55.255687 228:-123.81215 229:10.01729 230:-0.85051675 231:6.2586123 232:5.4721742 233:32.595985 234:-63.190733 235:-11.523722 236:12.558104 237:-80.630253 238:25.744466 239:-21.425539 240:18.026696 241:-13.033587 242:-12.954814 243:21.73153 244:13.514668 245:56.891039 246:-17.411049 247:-7.7896616 248:-25.633252 249:37.063496 250:-6.2991699 
0.044935596674072389 1:-190.98583 2:657.64521 3:-74.556306 4:178.6272 5:-25.377618 6:-2.5175709 7:147.90056 8:-98.287658 9:45.995734 10:-10.334713 11:-73.987113 12:-77.289695 13:-6.6825066 14:-40.967425 15:-91.221928 16:18.991709 17:9.4580525 18:-49.36172 19:32.949479 20:-32.193719 21:-23.606762 22:1.5228575 23:18.854756 24:33.608647 25:16.454862 26:19.105975 27:1.3636232 28:-0.8758771 29:0.94850355 30:-3.6814753 31:12.113833 32:3.2156823 33:0.40509726 34:-4.5612213 35:-18.004477 36:-1.7690981 37:-5.0714051 38:2.3244605 39:-6.3155646 40:-4.5439236 41:4.0414646 42:2.0391146 43:6.2710665 44:4.8442265 45:-1.0806317 46:-0.26888616 47:0.16648728 48:-4.1863634 49:1.7589041 50:1.9796569 51:-127.7913 52:-82.3679 53:621.95943 54:-285.73127 55:-46.078764 56:-8.5407217 57:-150.97948 58:100.86255 59:-96.57018 60:-104.19544 61:-53.257068 62:31.487428 63:-12.297068 64:87.943856 65:128.68172 66:95.711215 67:-11.341172 68:-90.719548 69:54.340365 70:86.280231 71:4.6471974 72:10.22927 73:26.142291 74:55.844852 75:-75.326174 76:-42.819591 77:35.019881 78:14.884355 79:-4.4338012 80:-3.508997 81:20.183056 82:-21.093959 83:-5.2040364 84:19.009926 85:43.289375 86:17.202897 87:33.590159 88:7.8272151 89:-6.0718782 90:-38.654172 91:16.728663 92:8.8205194 93:10.460089 94:52.64417 95:-13.142823 96:28.552497 97:5.2834576 98:-5.7989058 99:-11.989894 100:20.284193 101:-127.91039 102:-82.867417 103:621.80345 104:-285.91728 105:-46.493055 106:-8.2742825 107:-151.35296 108:101.34399 109:-96.854037 110:-104.12051 111:-52.773535 112:32.367115 113:-12.657283 114:88.888492 115:131.16961 116:95.47284 117:-11.318164 118:-90.241266 119:51.74188 120:86.660514 121:6.5773416 122:10.023579 123:25.483656 124:54.340605 125:-75.793108 126:-45.451875 127:35.571063 128:17.850836 129:-4.7792504 130:-3.8525436 131:20.810491 132:-21.384285 133:-5.9945991 134:19.285696 135:49.974123 136:17.539815 137:35.335295 138:9.1518275 139:-2.0580873 140:-36.634963 141:20.543787 142:7.2714256 143:8.9916166 144:49.722181 145:-2.8066514 146:29.924945 147:-1.823772 148:-9.0568933 149:-5.6138111 150:19.078094 151:-128.25648 152:-83.321528 153:621.65747 154:-286.49146 155:-46.172133 156:-8.3294443 157:-151.32846 158:101.2468 159:-96.576079 160:-103.9761 161:-52.631465 162:32.332596 163:-14.406558 164:88.448103 165:131.23053 166:94.722149 167:-9.9553533 168:-89.390783 169:52.421713 170:87.590545 171:7.0554805 172:10.091383 173:24.386831 174:53.531841 175:-76.545228 176:-43.794647 177:34.81615 178:13.515557 179:-5.051667 180:-1.6378084 181:16.293445 182:-20.596409 183:-5.5538354 184:20.718629 185:45.72932 186:22.563369 187:33.026727 188:7.1881585 189:-6.3693316 190:-39.084508 191:16.120742 192:9.3655363 193:7.4250985 194:49.070367 195:-12.999128 196:28.12931 197:4.8439648 198:-9.9554537 199:-13.3358 200:16.138844 201:-113.91979 202:-307.63857 203:424.86779 204:-38.744254 205:-331.50742 206:288.98675 207:247.65736 208:-78.904153 209:23.366901 210:-40.884287 211:-100.54859 212:-102.67781 213:-15.964628 214:-86.577971 215:-31.341027 216:-86.806367 217:-12.322485 218:95.811307 219:-36.984071 220:104.92803 221:4.7314311 222:0.35541997 223:95.575896 224:23.331618 225:20.33316 226:41.845467 227:-50.215783 228:57.267302 229:27.55871 230:-10.311538 231:1.6499135 232:3.79468 233:-7.2001438 234:53.980968 235:21.649631 236:67.093536 237:-33.002281 238:-3.7730388 239:-21.236993 240:-3.8291371 241:-32.599838 242:-15.680615 243:28.794161 244:0.99721626 245:36.675202 246:-33.644146 247:9.256117 248:16.205967 249:20.369606 250:-33.037585 
0.13434209829432425 1:-190.70302 2:659.06729 3:-74.455585 4:179.17064 5:-25.615787 6:-2.6123084 7:148.30912 8:-98.945727 9:46.239238 10:-10.337542 11:-74.599063 12:-78.25611 13:-4.3490188 14:-41.900998 15:-94.3117 16:19.726309 17:8.1081007 18:-51.886948 19:35.034088 20:-34.243129 21:-25.786143 22:1.6481833 23:20.152832 24:37.15433 25:17.916815 26:20.73831 27:1.5538329 28:0.14318054 29:1.1477132 30:-4.7108446 31:14.250846 32:4.3562291 33:0.49446764 34:-7.1424503 35:-22.883175 36:-1.8647942 37:-5.7644254 38:3.6756025 39:-8.2668088 40:-4.1323381 41:5.4612544 42:2.1885409 43:11.444239 44:8.9975782 45:-1.1950851 46:-1.088492 47:0.59783839 48:-7.0997506 49:2.0377707 50:4.1338174 51:-148.61284 52:162.88485 53:566.09991 54:-232.96898 55:104.18915 56:-197.24952 57:-222.79606 58:57.344047 59:-32.83895 60:41.350363 61:93.761905 62:80.53792 63:-17.42972 64:32.167902 65:-185.67608 66:28.006594 67:5.4754803 68:81.820309 69:11.162267 70:1.5093528 71:-11.394726 72:-5.7640881 73:11.19372 74:-64.637437 75:41.441788 76:33.490971 77:-42.243546 78:29.123857 79:8.3062991 80:11.44226 81:-20.992068 82:13.472851 83:-11.647485 84:26.288229 85:13.828367 86:-17.7229 87:23.444423 88:-18.980824 89:0.19834172 90:-15.985879 91:9.4672193 92:12.73168 93:-4.4219869 94:18.124124 95:-13.988924 96:6.2699891 97:-2.4351952 98:-14.672331 99:5.4476497 100:-6.1003642 101:-166.10075 102:435.14155 103:328.33215 104:-44.192518 105:158.17023 106:-247.9139 107:-94.931869 108:-61.237565 109:76.221618 110:167.94705 111:161.69016 112:53.731975 113:-8.004007 114:-21.994221 115:190.3993 116:-102.44896 117:-7.1331644 118:-26.910047 119:-111.3982 120:-81.32368 121:37.604581 122:-5.2677138 123:-5.4580969 124:34.771338 125:37.01703 126:-12.269341 127:22.939993 128:-65.987565 129:-5.7884965 130:-1.1744324 131:-11.849537 132:-11.194533 133:6.8869279 134:10.351986 135:8.2301889 136:-37.893005 137:30.937901 138:-67.081108 139:-53.945591 140:-20.53998 141:1.7457764 142:5.1470505 143:5.7853561 144:-9.9570292 145:48.687408 146:-23.603935 147:13.773718 148:4.1934913 149:17.154335 150:-15.321431 151:-124.82754 152:-153.45993 153:598.85743 154:-257.29975 155:-128.62315 156:92.241034 157:-52.016621 158:76.198414 159:-89.002968 160:-142.46436 161:-131.23782 162:-43.4031 163:-13.154239 164:30.334149 165:108.19634 166:58.611815 167:-7.4440381 168:-141.34313 169:36.393859 170:-94.640105 171:-19.787162 172:5.9482043 173:-22.881693 174:19.609233 175:64.92045 176:29.284444 177:-48.34849 178:33.726509 179:-12.080221 180:7.5134929 181:-30.861999 182:-15.730491 183:-4.4144035 184:-0.65080995 185:-31.469111 186:35.574841 187:1.9510763 188:6.0920649 189:14.571702 190:21.597285 191:-41.099953 192:-12.2783 193:0.60948835 194:-49.870873 195:49.841508 196:-15.329133 197:1.8598912 198:19.671939 199:-54.498409 200:20.402433 201:-106.4922 202:-356.95509 203:252.42901 204:166.71447 205:-371.69073 206:267.33972 207:331.97031 208:-180.276 209:115.62326 210:144.608 211:115.79607 212:36.184229 213:-11.007483 214:-5.2156827 215:106.80052 216:-35.650896 217:-3.1880252 218:-103.60777 219:-25.20646 220:31.320039 221:-95.127816 222:19.787178 223:65.017195 224:-56.232146 225:26.839016 226:-9.7796278 227:56.683534 228:-32.855176 229:-13.837805 230:3.3257727 231:-13.170009 232:54.576426 233:-4.4205317 234:-44.630118 235:-4.3402326 236:-30.995618 237:-7.6987436 238:38.9293 239:39.952524 240:-1.0330122 241:37.890737 242:-25.601646 243:-21.675558 244:-5.9780673 245:-23.332969 246:-6.1729671 247:-4.1236744 248:-0.63086713 249:8.2384675 250:-6.4567832 
0.0013876197816067748 1:-191.22371 2:658.7326 3:-74.260278 4:178.94872 5:-25.764126 6:-2.6618983 7:148.0472 8:-98.707562 9:46.172402 10:-10.201326 11:-73.951807 12:-77.531396 13:-7.0630022 14:-41.146114 15:-93.729434 16:19.72305 17:10.87593 18:-49.275319 19:34.715985 20:-32.597737 21:-24.671557 22:-0.37544907 23:19.463476 24:36.600398 25:17.039812 26:20.266067 27:2.2011479 28:-0.015486723 29:0.73902754 30:-5.1159419 31:14.177055 32:3.7453206 33:4.2681885 34:-5.2055619 35:-21.737089 36:-3.8196342 37:-3.7882203 38:3.1145125 39:-7.4102109 40:-3.1916244 41:8.0920984 42:2.9382076 43:11.612571 44:8.6567294 45:-2.5374629 46:2.8998443 47:-3.9714651 48:-9.9310104 49:11.729752 50:5.9765333 51:-191.27766 52:658.45018 53:-74.207356 54:178.83901 55:-25.840301 56:-2.5985664 57:148.10161 58:-98.684382 59:46.169264 60:-10.158976 61:-74.122896 62:-77.697132 63:-7.0105233 64:-41.354731 65:-93.681616 66:19.706176 67:9.7255222 68:-50.630202 69:34.126035 70:-33.136899 71:-24.239361 72:1.3224182 73:18.404369 74:34.374501 75:15.976501 76:19.238023 77:1.2138098 78:0.032545422 79:0.68098584 80:-3.4104673 81:12.782674 82:2.5745477 83:2.9624141 84:-4.3661906 85:-18.81148 86:-0.86119532 87:-4.2855724 88:2.7693282 89:-8.6474234 90:-5.9916982 91:5.8700115 92:4.297917 93:11.933048 94:10.757592 95:-0.61640912 96:0.43320657 97:0.23629126 98:-7.9539446 99:5.1249325 100:3.9384747 101:-137.19943 102:123.37312 103:-418.67798 104:-197.48542 105:-359.75946 106:243.23427 107:-260.33103 108:206.91095 109:-149.49337 110:-15.468133 111:118.07847 112:104.17041 113:2.939872 114:-14.915385 115:-111.70045 116:-60.95967 117:29.873139 118:-116.71855 119:-121.72069 120:-11.141752 121:1.672187 122:-8.5750856 123:62.179568 124:-3.0168196 125:-36.108257 126:-2.240558 127:2.7887515 128:-42.031926 129:28.129117 130:-6.6902223 131:44.00033 132:-50.085602 133:-4.0908962 134:58.713804 135:39.448475 136:-7.0249252 137:-8.0148158 138:8.6789501 139:5.767633 140:30.47577 141:23.539423 142:50.457052 143:-11.434707 144:-48.377654 145:-15.606043 146:22.379857 147:-10.812827 148:-24.241883 149:8.291181 150:4.6772542 151:-104.61481 152:-200.02473 153:-403.13326 154:-483.69333 155:-150.8287 156:-195.47127 157:-96.489259 158:-176.01551 159:173.53256 160:148.69386 161:-50.781412 162:-153.37041 163:6.0023266 164:-53.015215 165:-37.997372 166:61.144 167:19.500631 168:-102.29219 169:-14.000168 170:81.075515 171:64.734408 172:-1.4654703 173:-55.502332 174:33.703935 175:23.470737 176:-38.33066 177:-31.726733 178:35.650702 179:-5.0851102 180:7.1061481 181:-14.654984 182:0.56059998 183:23.611075 184:-62.397471 185:66.031756 186:-12.607302 187:-16.499773 188:-21.089727 189:0.066133097 190:6.2302691 191:-29.479716 192:16.360388 193:-4.7031047 194:-30.406356 195:27.42228 196:8.0166564 197:-9.5929709 198:-45.048368 199:37.449991 200:-30.296081 201:-103.15844 202:-211.02154 203:-395.94938 204:-489.021 205:-119.59308 206:-236.15572 207:-43.951298 208:-215.85604 209:185.04521 210:119.0693 211:-84.833242 212:-143.62104 213:10.342091 214:-10.281417 215:-33.161307 216:96.685117 217:22.220144 218:-101.37217 219:-49.647966 220:75.225395 221:127.73507 222:-14.39933 223:-15.899949 224:-24.016183 225:-12.162899 226:0.6337188 227:-42.947512 228:-3.3091168 229:-1.4819087 230:24.375859 231:-66.636562 232:15.812968 233:7.9869151 234:-28.049041 235:-28.148132 236:-7.5804067 237:-29.508636 238:2.6762414 239:4.1219592 240:-50.977249 241:8.195783 242:37.845926 243:-17.142919 244:-7.3434438 245:-11.128306 246:-7.2696296 247:-3.2495063 248:-13.876577 249:-13.79304 250:-12.232463 
0.012927170012451894 1:-191.203 2:658.36901 3:-74.379628 4:178.79807 5:-25.425888 6:-2.4967131 7:148.04481 8:-98.49473 9:46.159782 10:-10.034874 11:-73.851144 12:-77.42225 13:-6.9811443 14:-41.460415 15:-92.77924 16:19.115318 17:9.4861853 18:-49.590216 19:33.405961 20:-33.27722 21:-23.888264 22:1.4721156 23:19.10117 24:35.04642 25:15.490051 26:18.613567 27:2.5595733 28:1.4864216 29:0.36380582 30:-3.9018342 31:13.302041 32:2.8477942 33:0.94397304 34:-5.4027454 35:-21.524177 36:-3.8568522 37:-3.373832 38:3.3168955 39:-7.1547862 40:-2.4293803 41:5.6441457 42:4.1765269 43:9.3717365 44:6.0253328 45:-3.2596131 46:0.3327523 47:-0.65662215 48:-6.8385362 49:4.2553157 50:3.762021 51:-102.14751 52:-396.59637 53:8.9644882 54:513.61335 55:-234.61112 56:-107.30443 57:20.028702 58:-134.39738 59:59.360201 60:151.04975 61:185.21428 62:130.63896 63:-30.288015 64:83.254723 65:-86.076381 66:75.876906 67:-9.4649621 68:71.862622 69:23.796886 70:32.228635 71:86.453819 72:-12.032717 73:32.370411 74:137.87327 75:-38.546141 76:-13.213787 77:26.592124 78:30.317923 79:1.5226992 80:-17.12813 81:38.230046 82:29.29996 83:-9.0784915 84:16.492935 85:-13.878891 86:-16.082689 87:30.491903 88:-27.506601 89:2.5083683 90:-51.910195 91:10.518847 92:-14.167428 93:-15.261766 94:-67.749984 95:-1.936105 96:-48.115076 97:12.123734 98:33.470862 99:-28.055301 100:-36.24882 101:-107.10978 102:-308.73653 103:-84.783528 104:453.30555 105:-40.824068 106:-258.60931 107:-191.67503 108:16.16434 109:-49.987984 110:-43.011218 111:-31.043305 112:-3.5595278 113:-24.914522 114:19.979185 115:3.6360201 116:44.574247 117:-14.386685 118:-55.729047 119:55.737232 120:-51.36907 121:-16.859707 122:-0.12273035 123:-97.02676 124:-50.390153 125:-56.337353 126:5.1633145 127:-25.753497 128:-15.102719 129:25.25469 130:-8.4981741 131:51.707465 132:-45.036087 133:19.75945 134:10.501555 135:-1.4317362 136:1.8408686 137:-67.37262 138:10.515343 139:-33.005493 140:-16.174998 141:12.876649 142:-24.44604 143:-13.488244 144:-0.69289114 145:-14.165333 146:2.4097717 147:1.7732853 148:0.085524289 149:6.2717008 150:-10.076628 151:-109.51155 152:-274.84614 153:-92.025347 154:393.96903 155:2.0770313 156:-254.14637 157:-208.00508 158:51.966067 159:-69.948903 160:-94.048146 161:-99.727269 162:-60.019204 163:-22.537989 164:-30.153054 165:11.56212 166:-24.113845 167:-14.475089 168:5.0153357 169:-7.675759 170:-13.243512 171:7.5021872 172:-4.9373711 173:-36.618201 174:-5.4873176 175:-15.566722 176:-3.3992525 177:-29.660477 178:13.492643 179:9.7445697 180:-14.710434 181:21.548227 182:-54.495592 183:6.8886035 184:32.588321 185:-5.6319962 186:20.475378 187:-26.995211 188:-10.744636 189:-61.897268 190:-14.684443 191:-32.552458 192:14.715979 193:32.783299 194:10.24885 195:37.911762 196:4.1696596 197:7.412831 198:-0.50464898 199:-0.70474084 200:-1.2861334 201:-109.55694 202:-274.9055 203:-92.013271 204:394.03999 205:2.0394889 206:-254.3316 207:-207.92869 208:51.866497 209:-69.952306 210:-93.967356 211:-99.678654 212:-60.046477 213:-22.568477 214:-30.082868 215:11.410895 216:-23.900093 217:-14.451477 218:4.7488584 219:-7.8367278 220:-13.752541 221:7.5987358 222:-5.0071702 223:-36.92751 224:-5.7687971 225:-14.873349 226:-3.4649706 227:-28.858097 228:11.476058 229:8.9579027 230:-14.289566 231:20.174528 232:-54.729845 233:7.8447375 234:33.700219 235:-4.2947346 236:21.819818 237:-26.198569 238:-10.496766 239:-60.960549 240:-17.431893 241:-32.661282 242:12.932629 243:32.401127 244:9.1298565 245:38.059353 246:4.6546564 247:7.2616763 248:-1.6824257 249:-0.85548994 250:0.46141837 
0.12972383735666088 1:-113.12818 2:-104.70359 3:-433.94853 4:-404.09834 5:-300.49238 6:46.159785 7:-300.12841 8:63.815564 9:23.305978 10:168.91866 11:117.80884 12:-59.051075 13:1.069122 14:-119.13359 15:83.392078 16:-81.258718 17:-23.484806 18:100.22825 19:123.72405 20:-54.568948 21:-50.136243 22:10.153234 23:-20.960554 24:14.2245 25:-33.78945 26:42.140859 27:16.512321 28:6.2970355 29:5.9985412 30:9.7646437 31:-16.172181 32:56.472758 33:-5.6744362 34:5.738695 35:-46.326616 36:68.934137 37:14.771066 38:-15.441013 39:-24.354247 40:0.6913316 41:48.026131 42:6.0917982 43:36.028995 44:-42.528942 45:-4.5651282 46:-13.989452 47:-10.860756 48:-57.332383 49:13.338008 50:39.699053 51:-170.02923 52:478.62086 53:-281.78747 54:100.71677 55:-220.55675 56:218.59085 57:32.740591 58:85.877758 59:-123.10375 60:-161.0083 61:-62.712692 62:88.235346 63:6.6243293 64:148.83683 65:170.71494 66:81.989391 67:-23.630628 68:106.87667 69:0.34008576 70:-21.194742 71:105.4549 72:-11.433369 73:-12.380925 74:-13.074558 75:-3.8708453 76:26.441245 77:0.47888802 78:-50.165278 79:16.713886 80:17.949954 81:-37.929625 82:54.502706 83:-11.480599 84:35.430691 85:-26.864436 86:-9.2463859 87:-37.627828 88:8.745808 89:13.28725 90:-0.37315827 91:-62.729546 92:43.665044 93:-1.6554244 94:16.717055 95:-31.441543 96:12.098331 97:-4.5640931 98:-10.795069 99:3.2011813 100:-42.373697 101:-126.38908 102:-120.87138 103:616.06951 104:-276.39282 105:-88.092432 106:42.793889 107:-105.22906 108:92.335433 109:-96.83119 110:-129.55253 111:-96.984806 112:-5.3351725 113:-14.497508 114:66.245146 115:137.74483 116:88.970128 117:-7.0408254 118:-142.7123 119:53.003105 120:-15.101582 121:-9.0931799 122:10.23127 123:13.686763 124:70.265391 125:7.3856395 126:0.8564292 127:-28.734981 128:88.279843 129:-8.4229914 130:-14.128767 131:20.409911 132:-6.9935167 133:-16.083182 134:17.985597 135:-73.879523 136:-25.511584 137:25.150262 138:-8.2235443 139:-11.987689 140:37.865436 141:-2.3646831 142:17.882451 143:9.0152485 144:-45.201353 145:-30.390441 146:-4.4210516 147:0.17678861 148:5.9031622 149:-4.5694889 150:-0.9870262 151:-110.00757 152:-334.71876 153:339.32177 154:63.314086 155:-357.45364 156:287.40587 157:300.09366 158:-132.95347 159:72.048787 160:52.213039 161:4.7915971 162:-37.838913 163:-13.531205 164:-50.454744 165:47.935677 166:-68.600445 167:-7.2391482 168:0.12499636 169:-33.975679 170:117.1472 171:-59.413433 172:14.55608 173:152.53666 174:0.12001222 175:66.56327 176:56.717673 177:-11.205708 178:-13.235784 179:16.112959 180:5.8312139 181:-58.127465 182:54.510067 183:0.75188688 184:12.587839 185:37.802514 186:5.8704946 187:55.622887 188:-96.212132 189:-26.549156 190:31.258745 191:-28.19377 192:43.88928 193:10.311543 194:24.509188 195:36.498285 196:13.993866 197:1.8200596 198:-0.2763746 199:-3.0276882 200:10.932289 201:-104.76673 202:-342.56319 203:-74.358595 204:507.71795 205:-88.022452 206:-253.77311 207:-165.45772 208:-22.807118 209:-26.499717 210:11.707221 211:39.504221 212:51.051374 213:-27.483704 214:64.031625 215:2.2391257 216:98.025212 217:-12.160539 218:-106.54948 219:99.633316 220:-50.212278 221:-49.844669 222:7.2352752 223:-75.663585 224:-73.049911 225:-50.230849 226:31.059711 227:-10.866765 228:-39.355493 229:31.911248 230:7.566784 231:18.652788 232:24.890432 233:16.039613 234:-17.236963 235:25.863772 236:-12.353814 237:-13.015303 238:-39.340423 239:14.707291 240:29.986743 241:21.241634 242:-0.62590652 243:-32.684272 244:9.5420139 245:-13.586887 246:5.7022738 247:-0.05489184 248:7.5555734 249:5.3515461 250:-3.552914 
0.014365915227600263 1:-180.66879 2:589.38898 3:100.11453 4:102.99322 5:81.32005 6:-137.8419 7:62.450065 8:-111.15502 9:88.839094 10:101.13271 11:42.144588 12:-33.918288 13:-9.5646187 14:-48.823938 15:109.27269 16:-61.179042 17:-21.196681 18:70.759382 19:36.486609 20:187.62012 21:-29.603915 22:20.184269 23:-63.375432 24:-74.293829 25:-108.86668 26:-46.397885 27:-9.327603 28:42.883288 29:-3.2281933 30:-1.2077198 31:11.777156 32:-18.014462 33:-3.6411088 34:-13.062781 35:-62.817215 36:-44.804957 37:25.251507 38:-17.916216 39:-20.868228 40:93.150592 41:-7.00691 42:19.330153 43:31.333039 44:9.4110747 45:-30.639331 46:3.2469519 47:-6.7008265 48:0.31184671 49:40.487438 50:-14.308715 51:-152.26332 52:217.21645 53:526.6968 54:-199.22827 55:125.19259 56:-220.13735 57:-205.00265 58:32.146263 59:-6.1386357 60:79.167542 61:118.48889 62:74.009261 63:-18.994824 64:5.9895998 65:-143.28778 66:-14.342591 67:8.030377 68:36.861864 69:-35.463653 70:-64.72448 71:-8.222042 72:-7.986675 73:-19.602271 74:-47.1689 75:-2.0877948 76:-43.005285 77:16.000241 78:85.450832 79:-19.337271 80:-4.9650486 81:14.874662 82:23.59255 83:-21.385901 84:-3.6930703 85:3.6432714 86:21.529615 87:7.6395012 88:63.078856 89:43.617266 90:-6.8810087 91:48.212055 92:-36.104445 93:18.854053 94:-5.491014 95:36.29602 96:-49.247821 97:8.5483324 98:11.933772 99:31.686405 100:14.430174 101:-124.76708 102:-153.47155 103:599.24897 104:-256.9748 105:-128.72392 106:92.009592 107:-51.885125 108:75.973824 109:-89.048349 110:-142.38449 111:-131.14065 112:-43.380844 113:-13.374039 114:30.282694 115:107.7993 116:58.839548 117:-7.5731524 118:-141.21383 119:36.060087 120:-94.782888 121:-20.764073 122:5.9824359 123:-20.698887 124:20.129411 125:66.215568 126:28.648138 127:-46.509008 128:34.095652 129:-12.247143 130:6.8565624 131:-31.168213 132:-13.923862 133:-3.6905249 134:-0.08188624 135:-32.171223 136:34.385774 137:1.6535163 138:6.8706929 139:15.912352 140:23.737457 141:-43.845616 142:-11.421625 143:-0.93887472 144:-48.121146 145:49.41146 146:-11.244928 147:0.76453609 148:17.844896 149:-52.146246 150:28.698961 151:-128.23161 152:-83.6136 153:622.25383 154:-286.07976 155:-46.326462 156:-8.4522469 157:-151.32042 158:101.29116 159:-96.750492 160:-104.10627 161:-52.708285 162:32.27718 163:-14.733887 164:88.560548 165:130.77049 166:95.046122 167:-10.292624 168:-88.533436 169:52.603825 170:87.299503 171:6.0852338 172:10.102213 173:24.260415 174:52.575739 175:-76.998253 176:-44.961201 177:35.953881 178:14.015836 179:-5.2195823 180:-2.7328323 181:18.718124 182:-22.472909 183:-2.6175468 184:22.00871 185:47.251919 186:18.602593 187:33.323006 188:8.7302466 189:-3.7670606 190:-41.467441 191:15.687544 192:9.4481839 193:6.4015171 194:49.876024 195:-15.21022 196:29.573343 197:4.2360598 198:-3.9095109 199:-12.664441 200:18.788411 201:-143.80506 202:101.33732 203:587.96135 204:-253.11974 205:71.971734 206:-156.94376 207:-216.20054 208:73.879545 209:-53.34084 210:1.3272463 211:56.577083 212:71.18106 213:-16.858499 214:50.286522 215:-128.25695 216:54.431436 217:0.39192415 218:57.703002 219:41.341591 220:68.686754 221:-14.511851 222:1.9186427 223:45.542187 224:2.4763974 225:16.70954 226:43.727793 227:19.20098 228:-100.93199 229:11.080707 230:4.3408436 231:-14.777929 232:13.365349 233:29.006223 234:-58.681335 235:-20.707322 236:-12.477854 237:-58.359228 238:2.2347143 239:-3.7712015 240:59.576986 241:-26.916586 242:-16.077822 243:-23.531848 244:-46.75201 245:9.3741965 246:15.469302 247:5.9682022 248:31.311354 249:-18.902787 250:-2.2814112 
0.040861739536597226 1:-190.50518 2:658.58056 3:-74.450509 4:179.0614 5:-25.558963 6:-2.6217506 7:148.08052 8:-98.83385 9:46.148396 10:-10.439571 11:-74.498965 12:-77.920204 13:-3.8845046 14:-41.556538 15:-92.941897 16:19.235205 17:7.6767687 18:-51.157813 19:33.725756 20:-34.037118 21:-24.716323 22:1.4813661 23:19.693462 24:36.317422 25:17.739508 26:19.87893 27:2.0017199 28:-0.37265383 29:0.75707912 30:-4.6591282 31:13.134626 32:3.9854168 33:0.48937815 34:-6.6133855 35:-20.996573 36:0.035857776 37:-6.4461392 38:5.1257685 39:-6.6357161 40:-3.9332594 41:3.5661952 42:2.0761191 43:10.67612 44:7.6819335 45:-1.3641919 46:-1.5070928 47:0.63183825 48:-5.6309206 49:2.8252473 50:1.6012831 51:-162.09937 52:383.47864 53:382.61453 54:-84.051278 55:156.40188 56:-249.59237 57:-126.7425 58:-40.081339 59:59.428517 60:154.72489 61:159.67095 62:60.226939 63:-10.124283 64:-20.948801 65:110.35839 66:-92.557239 67:-2.5499124 68:-30.931903 69:-119.6345 70:-132.02068 71:41.833224 72:-11.094871 73:-28.46446 74:22.550547 75:-4.9144209 76:-66.274294 77:80.809745 78:-38.889032 79:-21.214678 80:-5.036565 81:-5.4578488 82:49.552425 83:-15.403157 84:9.9488386 85:-20.596094 86:-48.011178 87:10.951903 88:-10.025465 89:-8.2570217 90:-22.638457 91:-63.179964 92:-10.848042 93:4.6680127 94:-0.98454232 95:-3.7346087 96:49.134941 97:-12.219315 98:-25.836059 99:-10.676187 100:41.966663 101:-133.30561 102:-21.879549 103:613.92388 104:-278.54448 105:-5.8591259 106:-59.163739 107:-176.97635 108:94.640855 109:-84.439403 110:-71.177177 111:-17.059758 112:46.825844 113:-14.142868 114:78.894477 115:44.871028 116:87.39462 117:-8.4890006 118:-41.919941 119:60.165635 120:104.62517 121:-7.589036 122:9.365965 123:47.191942 124:57.227449 125:-59.362399 126:-10.842286 127:60.506979 128:-73.655007 129:4.0421568 130:-2.5436676 131:21.184135 132:-6.4607232 133:19.211029 134:-29.996363 135:17.234072 136:27.060425 137:-39.198552 138:26.73446 139:-22.695406 140:-31.532639 141:15.346937 142:1.1984983 143:39.466115 144:56.833178 145:39.39854 146:-9.7217071 147:-7.9299857 148:-54.46578 149:41.78768 150:11.721904 151:-128.20466 152:-83.286657 153:621.67779 154:-286.54044 155:-46.309988 156:-8.4441256 157:-151.53409 158:101.45361 159:-96.827967 160:-104.00021 161:-52.466129 162:32.522845 163:-14.407966 164:88.689626 165:130.81493 166:94.984918 167:-9.8968767 168:-89.251505 169:51.910611 170:88.086721 171:6.4803273 172:10.116181 173:24.936232 174:53.625911 175:-76.698001 176:-44.517095 177:35.786758 178:13.60546 179:-4.9801997 180:-2.0835774 181:17.104827 182:-21.359392 183:-5.5096846 184:20.94649 185:44.861227 186:20.4209 187:32.845172 188:6.1681904 189:-6.9665624 190:-38.719355 191:15.927988 192:9.4136001 193:8.3573582 194:50.154095 195:-12.485532 196:27.913176 197:6.1528762 198:-7.9717053 199:-10.682758 200:16.776211 201:-128.23339 202:-83.588307 203:621.93508 204:-286.38751 205:-46.436718 206:-8.197812 207:-151.26582 208:101.44234 209:-96.818896 210:-104.22234 211:-52.887872 212:32.174991 213:-14.573029 214:88.472976 215:131.26562 216:94.741157 217:-10.101409 218:-89.457264 219:52.34473 220:88.215671 221:6.3887751 222:10.212537 223:24.24242 224:54.128475 225:-76.622205 226:-45.295935 227:35.371099 228:14.694121 229:-5.177104 230:-2.864867 231:18.720129 232:-22.320505 233:-5.4928446 234:20.588786 235:45.88381 236:18.108281 237:34.026376 238:6.5223335 239:-3.7743195 240:-40.824712 241:15.836461 242:6.4849295 243:7.4924866 244:48.499248 245:-12.54614 246:27.11316 247:5.260106 248:-1.8799792 249:-13.205507 250:16.022223 
0.783459377268239 1:-180.72549 2:589.84653 3:100.25239 4:103.17658 5:81.357099 6:-137.88774 7:62.538276 8:-111.20899 9:88.774027 10:100.79299 11:41.75487 12:-34.110089 13:-9.4299195 14:-48.770417 15:107.99786 16:-60.497561 17:-20.289606 18:69.345248 19:37.246565 20:186.39253 21:-30.99256 22:20.350111 23:-61.148091 24:-72.490411 25:-105.60942 26:-44.403564 27:-9.7260829 28:42.489759 29:-3.4375287 30:3.9451019 31:14.333338 32:-17.925359 33:-5.0106163 34:-11.946946 35:-63.145099 36:-45.366559 37:23.948379 38:-18.096831 39:-22.204116 40:89.50596 41:-7.2484244 42:19.8135 43:31.883712 44:12.95148 45:-29.211852 46:4.6587591 47:-10.229626 48:0.74386894 49:40.92751 50:-11.38173 51:-155.71968 52:273.27058 53:482.18838 54:-162.12394 55:140.3489 56:-236.30773 57:-181.77423 58:6.5943445 59:18.65285 60:110.51964 61:136.74 62:67.414175 63:-17.840246 64:-11.589158 65:-72.175123 66:-48.831687 67:8.9288506 68:-2.969367 69:-76.392251 70:-116.46577 71:9.3049693 72:-11.485627 73:-35.36105 74:-22.02563 75:-39.393753 76:-90.677485 77:70.725659 78:80.753483 79:-30.079092 80:-3.8162126 81:20.787001 82:63.234907 83:-28.592607 84:-19.379759 85:-19.763621 86:38.912171 87:-33.360387 88:94.23596 89:64.709484 90:16.049273 91:-2.7353186 92:-6.2216796 93:16.907536 94:2.1575619 95:14.867232 96:-26.980047 97:1.2728395 98:6.9145423 99:30.469195 100:-33.58571 101:-138.63317 102:40.43207 103:603.29691 104:-267.57166 105:34.277367 106:-109.51031 107:-198.88964 108:85.279577 109:-69.747982 110:-35.674447 111:19.584754 112:59.535851 113:-16.033139 114:65.954836 115:-45.676432 116:74.561015 117:-4.228376 118:8.9298737 119:57.561933 120:100.32729 121:-15.051434 122:5.6007759 123:55.256208 124:41.454532 125:-24.771021 126:22.073365 127:55.879739 128:-121.88053 129:9.705029 130:2.2878642 131:9.0305525 132:7.5754907 133:32.377366 134:-64.177766 135:-14.928678 136:10.831229 137:-81.356721 138:25.790771 139:-22.49945 140:20.97892 141:-12.819411 142:-10.937168 143:24.894007 144:13.720725 145:52.240211 146:-15.25495 147:-12.516084 148:-32.39918 149:47.414726 150:-0.78489672 151:-117.63334 152:-273.52748 153:504.20269 154:-126.89435 155:-290.30471 156:258.95618 157:169.30701 158:-23.863473 159:-24.902262 160:-115.65294 161:-172.60573 162:-135.01759 163:-17.990004 164:-90.56476 165:-71.311542 166:-66.157059 167:-19.103017 168:90.62848 169:-20.881298 170:-45.617336 171:47.920058 172:-12.306001 173:-86.506021 174:-13.771359 175:-58.047616 176:-23.939829 177:21.476285 178:-34.231727 179:7.5355001 180:-1.8585714 181:35.458716 182:6.9406517 183:7.6893185 184:-18.193762 185:-5.6252978 186:-66.610398 187:10.512005 188:-35.551127 189:-7.6732131 190:-8.8149758 191:27.067939 192:24.09389 193:-16.811981 194:-1.3527602 195:29.311455 196:-8.4655908 197:2.9193206 198:0.81838295 199:-11.639018 200:0.66805784 201:-128.29231 202:-83.431113 203:621.96959 204:-286.34776 205:-46.548611 206:-8.4178246 207:-151.43791 208:101.24754 209:-96.691426 210:-103.97966 211:-52.707715 212:32.122651 213:-14.69483 214:88.480634 215:130.35577 216:95.416171 217:-10.131811 218:-88.868877 219:52.880238 220:87.966013 221:6.4959908 222:10.11912 223:24.125287 224:54.356729 225:-74.897 226:-44.405197 227:35.107831 228:12.904437 229:-5.7668202 230:-2.1712926 231:17.303647 232:-23.436562 233:-5.0580369 234:19.412382 235:46.475448 236:17.199133 237:34.583147 238:7.006974 239:-5.520205 240:-41.02097 241:13.985447 242:9.6650761 243:8.1550447 244:53.529566 245:-12.833625 246:30.552817 247:5.3296281 248:-7.6925256 249:-11.500812 250:18.261634 
0.025073972849882498 1:-137.14569 2:123.44385 3:-418.8962 4:-197.25674 5:-359.38262 6:243.29659 7:-260.16551 8:206.874 9:-149.322 10:-15.096877 11:118.51273 12:104.42151 13:2.9161639 14:-15.125151 15:-111.21625 16:-61.368785 17:29.826449 18:-116.42774 19:-121.98843 20:-12.610038 21:1.6451571 22:-8.6042952 23:62.092191 24:-1.6980478 25:-36.6984 26:-3.2662596 27:4.7226487 28:-40.596664 29:27.382179 30:-7.0791625 31:44.527062 32:-50.253824 33:-5.7415949 34:57.016607 35:36.766001 36:-7.3498099 37:-7.2946157 38:10.156497 39:5.7110869 40:33.637128 41:23.516113 42:51.71323 43:-8.7464059 44:-49.874296 45:-15.80214 46:21.013081 47:-11.972099 48:-23.666949 49:10.993228 50:5.260956 51:-186.97702 52:626.85673 53:-118.95437 54:173.82185 55:-62.996496 56:45.887317 57:138.18876 58:-64.74258 59:11.674154 60:-50.637928 61:-83.013148 62:-44.343134 63:-5.0515501 64:8.0380916 65:-29.824672 66:40.212039 67:7.0273041 68:-41.407763 69:-19.540576 70:-56.761842 71:48.981847 72:-10.048351 73:21.941696 74:1.4346578 75:-10.363122 76:-10.943457 77:-30.375101 78:81.418716 79:8.4250136 80:-0.39340793 81:-4.7716913 82:12.395141 83:-1.5928288 84:-15.369956 85:68.101222 86:-34.038809 87:28.784153 88:-30.788224 89:25.344203 90:31.25724 91:-7.3495454 92:-35.604655 93:-57.020583 94:16.878514 95:-13.004916 96:42.373781 97:7.5292428 98:60.674659 99:-30.45271 100:-24.394121 101:-191.17177 102:657.68609 103:-74.187323 104:178.86376 105:-25.84586 106:-2.5850666 107:147.87606 108:-98.449439 109:45.975088 110:-10.293538 111:-73.949578 112:-77.276469 113:-6.9735199 114:-40.993897 115:-91.761424 116:18.97642 117:9.2064078 118:-48.959738 119:33.106753 120:-32.227728 121:-23.589262 122:1.4615954 123:18.92349 124:34.265043 125:16.062107 126:18.865441 127:1.7124431 128:-0.9935484 129:0.53082283 130:-3.7860863 131:12.516701 132:1.871373 133:3.5144063 134:-4.70418 135:-18.38171 136:-0.75291042 137:-5.1682418 138:3.5192297 139:-7.4871035 140:-3.8614582 141:4.7872467 142:1.8955996 143:8.664554 144:7.2438081 145:-2.4207545 146:-0.4056505 147:0.42133883 148:-4.4135223 149:2.6102838 150:1.4191836 151:-180.61217 152:588.2117 153:100.54202 154:102.74776 155:81.076212 156:-137.73516 157:61.802473 158:-110.63036 159:88.38391 160:100.90134 161:42.653162 162:-32.935375 163:-9.3863229 164:-47.917246 165:111.7009 166:-61.769839 167:-21.461431 168:71.669014 169:34.49272 170:188.25333 171:-28.88543 172:20.12612 173:-63.842197 174:-77.02874 175:-108.75894 176:-48.381048 177:-8.8160614 178:42.42351 179:-3.346678 180:-0.84016393 181:9.4248242 182:-17.746864 183:-5.079245 184:-12.034883 185:-56.809315 186:-44.311135 187:26.539566 188:-18.710336 189:-17.817753 190:91.333312 191:-10.616192 192:17.392144 193:25.50787 194:5.677287 195:-29.566717 196:4.3632868 197:-5.4488141 198:7.427269 199:34.351551 200:-17.969966 201:-126.39818 202:-121.31377 203:615.82215 204:-276.05954 205:-88.335092 206:42.727552 207:-105.1409 208:92.269911 209:-96.913738 210:-129.58012 211:-97.020328 212:-5.395522 213:-14.480487 214:66.390366 215:139.18964 216:88.966498 217:-7.2631525 218:-143.20845 219:52.86844 220:-15.369398 221:-8.8238698 222:10.266553 223:12.134375 224:69.439279 225:6.5300388 226:0.43632149 227:-27.699354 228:84.900067 229:-9.0686054 230:-13.987867 231:20.188742 232:-8.5037131 233:-14.246347 234:17.173708 235:-72.557046 236:-26.682581 237:26.702277 238:-9.5723698 239:-11.764144 240:37.884463 241:-1.8714189 242:16.522998 243:7.0068818 244:-49.110521 245:-31.068142 246:-3.3314713 247:0.65521847 248:8.3566702 249:-6.8139005 250:-0.30333267 
0.014049234461218767 1:-180.43563 2:588.12257 3:100.18201 4:102.50702 5:81.542654 6:-137.77332 7:61.741665 8:-110.48802 9:88.417738 10:100.96816 11:42.817527 12:-32.734744 13:-9.118576 14:-47.74697 15:111.53162 16:-61.618841 17:-21.164646 18:71.873348 19:34.332084 20:188.26861 21:-28.679422 22:20.052578 23:-63.513933 24:-76.925744 25:-107.82469 26:-47.783582 27:-9.5375018 28:41.942649 29:-3.1554036 30:-0.77087057 31:9.3554088 32:-18.795062 33:-4.973885 34:-10.968938 35:-56.514861 36:-43.086853 37:24.611801 38:-17.01028 39:-17.825694 40:90.018098 41:-10.576857 42:16.692029 43:25.784479 44:5.8693255 45:-27.862651 46:4.5491323 47:-6.1662368 48:4.7393908 49:35.161333 50:-15.204063 51:-148.78794 52:162.97943 53:566.33704 54:-232.78992 55:104.641 56:-197.46315 57:-222.4888 58:57.123091 59:-32.549289 60:41.687239 61:93.79451 62:80.081412 63:-18.602061 64:31.966184 65:-185.62154 66:28.054682 67:5.9248796 68:81.810783 69:11.010252 70:1.876502 71:-10.719905 72:-5.7997619 73:10.651924 74:-64.060824 75:40.436533 76:32.547894 77:-41.272192 78:29.629474 79:7.6951914 80:11.196865 81:-21.243332 82:14.070872 83:-11.410303 84:28.087046 85:10.95663 86:-18.908068 87:26.208607 88:-19.074461 89:0.13689562 90:-13.730345 91:6.0229187 92:14.797787 93:-1.8980702 94:15.867461 95:-17.684551 96:4.1906167 97:-2.7754503 98:-13.25872 99:7.1961244 100:-3.8013545 101:-148.79002 102:162.62506 103:566.72008 104:-233.03383 105:104.67297 106:-197.69261 107:-222.78798 108:57.249893 109:-32.562525 110:41.632177 111:94.030957 112:80.454244 113:-18.551663 114:32.215362 115:-185.56939 116:28.28965 117:5.9210069 118:82.326328 119:10.539217 120:1.6817711 121:-10.577252 122:-5.8790783 123:9.9270681 124:-65.865154 125:42.04912 126:32.466375 127:-42.170239 128:28.778755 129:7.8260118 130:12.020679 131:-23.96837 132:15.75134 133:-11.672543 134:29.381751 135:13.683189 136:-19.263352 137:27.200793 138:-21.634833 139:0.73120987 140:-15.676026 141:3.3760358 142:12.815033 143:-4.9069079 144:14.968024 145:-18.205258 146:7.0816163 147:-3.8005453 148:-14.140247 149:4.9706249 150:-2.3916835 151:-104.76836 152:-342.51625 153:-74.203359 154:507.55668 155:-87.966529 156:-253.76256 157:-165.4231 158:-22.803279 159:-26.515149 160:11.644543 161:39.479556 162:51.150349 163:-27.477263 164:64.210094 165:1.5937081 166:98.326186 167:-12.060416 168:-106.54876 169:99.742854 170:-50.089812 171:-50.124806 172:7.239551 173:-76.001105 174:-73.810043 175:-50.221463 176:30.714805 177:-10.747436 178:-39.251842 179:31.831075 180:7.6581412 181:19.017227 182:25.267276 183:17.439248 184:-16.199918 185:25.473053 186:-14.314553 187:-13.368313 188:-39.108669 189:15.060037 190:27.972266 191:23.487859 192:0.65542403 193:-34.316618 194:10.385714 195:-14.971407 196:7.0636786 197:-1.0371641 198:3.9313743 199:6.4016037 200:-0.49083353 201:-110.60456 202:-259.00163 203:-92.458915 204:362.70474 205:17.933815 206:-244.25147 207:-206.44144 208:64.726131 209:-75.077668 210:-111.70067 211:-125.86242 212:-84.047583 213:-20.915936 214:-54.518641 215:25.50015 216:-61.959711 217:-11.073406 218:18.854033 219:-44.23928 220:18.492561 221:-6.9415255 222:-3.1886937 223:31.400854 224:-2.3708818 225:24.451025 226:-8.7309794 227:9.415496 228:3.9309854 229:-10.510259 230:-8.2501563 231:-18.015222 232:5.373282 233:-4.8799212 234:-4.6206241 235:-3.4695189 236:-4.8323588 237:12.137924 238:11.983898 239:7.7952854 240:-1.5467545 241:2.8244805 242:3.268992 243:2.5738821 244:3.0814519 245:-7.6878247 246:1.3734882 247:3.0802419 248:-2.9860188 249:-0.95912327 250:0.62280625 
0.00052185080417873524 1:-191.203 2:658.36901 3:-74.379628 4:178.79807 5:-25.425888 6:-2.4967131 7:148.04481 8:-98.49473 9:46.159782 10:-10.034874 11:-73.851144 12:-77.42225 13:-6.9811443 14:-41.460415 15:-92.77924 16:19.115318 17:9.4861853 18:-49.590216 19:33.405961 20:-33.27722 21:-23.888264 22:1.4721156 23:19.10117 24:35.04642 25:15.490051 26:18.613567 27:2.5595733 28:1.4864216 29:0.36380582 30:-3.9018342 31:13.302041 32:2.8477942 33:0.94397304 34:-5.4027454 35:-21.524177 36:-3.8568522 37:-3.373832 38:3.3168955 39:-7.1547862 40:-2.4293803 41:5.6441457 42:4.1765269 43:9.3717365 44:6.0253328 45:-3.2596131 46:0.3327523 47:-0.65662215 48:-6.8385362 49:4.2553157 50:3.762021 51:-119.21215 52:-246.17652 53:531.66514 54:-164.0279 55:-252.4325 56:222.60613 57:115.77924 58:3.4720407 59:-43.903363 60:-130.83827 61:-173.45069 62:-119.95661 63:-17.330409 64:-64.738135 65:-32.684484 66:-35.714765 67:-16.423154 68:22.660694 69:-11.309442 70:-106.67976 71:32.659591 72:-9.9312577 73:-96.083229 74:-11.341822 75:0.10057886 76:-12.808195 77:14.830888 78:-67.89079 79:-16.963118 80:18.359834 81:-28.410294 82:-27.742384 83:18.02067 84:-36.951897 85:18.487169 86:10.883464 87:45.595307 88:-28.325609 89:-6.9198814 90:11.725012 91:30.609326 92:2.3995349 93:11.816488 94:8.131929 95:-48.661006 96:-26.23143 97:6.6896126 98:17.801498 99:34.496958 100:-53.735021 101:-117.55754 102:-273.82346 103:504.29787 104:-126.66015 105:-290.11245 106:258.8652 107:169.39693 108:-23.877111 109:-24.888897 110:-115.74535 111:-172.70993 112:-134.99739 113:-17.983085 114:-90.332023 115:-69.605776 116:-66.228982 117:-19.398361 118:90.862948 119:-20.655755 120:-45.447809 121:47.62608 122:-12.140725 123:-86.673773 124:-13.237041 125:-58.01487 126:-24.549089 127:23.010572 128:-34.902031 129:7.1447183 130:-2.6130024 131:36.329349 132:7.7920332 133:8.8721254 134:-18.167908 135:-5.9576224 136:-66.875373 137:9.0877819 138:-33.509284 139:-6.1842513 140:-10.048772 141:26.496339 142:22.407559 143:-17.333435 144:-5.9687924 145:34.326196 146:-9.4257867 147:2.1357174 148:1.4881912 149:-12.119736 150:3.7220303 151:-117.55439 152:-273.84297 153:504.1805 154:-126.50577 155:-290.2243 156:259.00589 157:169.56741 158:-23.939595 159:-24.838713 160:-115.70898 161:-172.74362 162:-135.1388 163:-17.976637 164:-90.553536 165:-68.89888 166:-66.639676 167:-19.495479 168:90.85177 169:-20.784507 170:-45.223691 171:47.577471 172:-12.048321 173:-86.382958 174:-13.121756 175:-58.447138 176:-24.741146 177:22.716766 178:-33.036153 179:7.1097688 180:-2.8458997 181:36.277016 182:8.3714888 183:7.5776995 184:-19.224137 185:-6.6517252 186:-66.804909 187:10.33199 188:-34.387622 189:-5.8749367 190:-6.110126 191:25.319258 192:22.276118 193:-17.041822 194:-7.4111702 195:32.648644 196:-9.9271569 197:2.8176252 198:5.5015434 199:-12.284666 200:-0.39929848 201:-102.16152 202:-397.09173 203:8.9187531 204:514.13275 205:-234.88414 206:-107.40145 207:19.983345 208:-134.46435 209:59.313745 210:151.05599 211:185.28454 212:130.71585 213:-30.424069 214:83.311696 215:-85.325251 216:75.789628 217:-9.7821396 218:71.797669 219:24.019341 220:32.910181 221:86.583045 222:-11.97429 223:31.330565 224:138.47559 225:-39.756721 226:-13.741803 227:27.129658 228:29.410414 229:1.2540822 230:-17.663952 231:39.564959 232:27.572144 233:-8.56103 234:15.461979 235:-14.698487 236:-16.755808 237:31.122761 238:-27.085616 239:2.8376571 240:-49.923299 241:10.445223 242:-14.039669 243:-15.57788 244:-73.18548 245:-2.4082587 246:-48.030476 247:12.745697 248:36.988287 249:-31.778932 250:-35.925764 
0.057685549523690739 1:-191.27569 2:659.36917 3:-74.485922 4:179.29676 5:-25.563174 6:-2.6319949 7:148.69717 8:-99.00863 9:46.352022 10:-10.50988 11:-75.049771 12:-78.66504 13:-6.99385 14:-41.990871 15:-94.755689 16:20.112988 17:10.333092 18:-51.88982 19:35.86396 20:-34.069795 21:-25.9199 22:1.8203908 23:21.220599 24:38.04398 25:18.670133 26:22.485993 27:1.175042 28:-0.32876734 29:0.66637844 30:1.0344971 31:17.091762 32:4.0853851 33:0.36836593 34:-5.5392292 35:-24.634715 36:-4.0488038 37:-5.7348274 38:1.2379103 39:-10.693986 40:-5.0560613 41:7.3698973 42:5.1605854 43:12.370299 44:11.926381 45:-2.4298324 46:-0.15925934 47:-3.8969016 48:-8.1818852 49:7.5250816 50:5.8019898 51:-128.28263 52:-83.034333 53:622.19795 54:-286.15061 55:-46.240748 56:-8.5852754 57:-151.41686 58:101.24747 59:-96.697525 60:-104.04667 61:-52.799264 62:32.016187 63:-14.765597 64:88.264981 65:130.14744 66:95.148235 67:-9.8258456 68:-89.625877 69:52.568184 70:87.362106 71:5.9609333 72:10.184393 73:24.753958 74:53.841256 75:-76.353373 76:-45.043348 77:35.606133 78:15.63357 79:-5.745367 80:-0.6028585 81:19.931428 82:-22.139971 83:-5.8394967 84:20.841794 85:44.658186 86:16.841532 87:33.710922 88:7.6583783 89:-4.90274 90:-39.14874 91:13.737754 92:6.625528 93:8.6962999 94:51.142795 95:-17.779743 96:30.086415 97:0.36252422 98:-5.2688824 99:-9.280953 100:16.415537 101:-128.30847 102:-83.374822 103:622.28336 104:-286.21069 105:-46.358597 106:-8.5696304 107:-151.55968 108:101.38825 109:-96.873126 110:-104.21849 111:-52.769767 112:32.271302 113:-14.786937 114:88.533352 115:130.26966 116:95.152048 117:-10.213834 118:-88.726595 119:52.655131 120:88.381981 121:6.1467762 122:10.107771 123:24.959103 124:53.934828 125:-76.616358 126:-44.434579 127:35.59263 128:13.270064 129:-4.8990184 130:-2.8337268 131:19.281752 132:-23.577162 133:-4.6712895 134:19.109595 135:47.885636 136:18.557278 137:33.115288 138:7.7938546 139:-5.4142139 140:-41.17147 141:17.020438 142:9.6748729 143:9.0393289 144:55.558461 145:-16.501125 146:28.885878 147:3.1281667 148:-5.7499182 149:-13.060592 150:14.430363 151:-128.2726 152:-83.505932 153:622.08487 154:-286.31812 155:-46.466208 156:-8.4322028 157:-151.28453 158:101.19691 159:-96.684724 160:-104.03349 161:-52.713945 162:32.186986 163:-14.691743 164:88.460566 165:130.53484 166:95.144264 167:-10.1906 168:-88.783861 169:52.866048 170:88.002201 171:5.9722352 172:10.205725 173:23.279879 174:52.604484 175:-75.410385 176:-44.282777 177:34.543458 178:13.518117 179:-5.0632204 180:-2.2458086 181:18.251053 182:-22.90655 183:-5.5513683 184:21.054022 185:46.778495 186:16.345733 187:34.156884 188:7.2335778 189:-4.3713515 190:-40.685363 191:13.897219 192:10.36779 193:7.148354 194:50.446374 195:-10.802248 196:30.240238 197:4.7554321 198:-6.687597 199:-13.618394 200:19.612417 201:-128.31134 202:-83.438815 203:621.90017 204:-286.26631 205:-46.586704 206:-8.3747373 207:-151.47499 208:101.35171 209:-96.854885 210:-104.03174 211:-52.297626 212:32.902563 213:-14.668912 214:89.101609 215:131.29643 216:95.011845 217:-10.183366 218:-88.457619 219:51.740726 220:87.244196 221:6.7138186 222:10.010661 223:26.43986 224:52.534525 225:-76.660729 226:-43.817357 227:34.336845 228:15.607927 229:-4.3646603 230:-2.7817893 231:19.350125 232:-23.620448 233:-6.3229821 234:23.493071 235:48.92312 236:19.496021 237:35.160138 238:7.9448026 239:-4.6546109 240:-38.09778 241:14.392546 242:11.015366 243:8.2621237 244:44.934091 245:-10.774109 246:28.778085 247:4.5399203 248:-2.8676163 249:-17.084136 250:17.48636 
0.21931555526836721 1:-162.57725 2:383.04128 3:382.87176 4:-84.313 5:156.53669 6:-249.71141 7:-126.79474 8:-39.875238 9:59.611109 10:155.07371 11:160.02114 12:60.302298 13:-12.537808 14:-21.518903 15:110.33378 16:-92.977313 17:-1.1346209 18:-29.975557 19:-120.03485 20:-131.76216 21:41.507255 22:-11.024219 23:-28.870274 24:21.148949 25:-4.6897932 26:-66.02203 27:81.294222 28:-40.825979 29:-21.345937 30:-4.0927121 31:-7.8664682 32:49.921219 33:-14.271657 34:11.607803 35:-21.827888 36:-47.542554 37:10.176329 38:-11.561104 39:-8.7718435 40:-24.006628 41:-68.473751 42:-10.08697 43:3.9226894 44:-2.0248183 45:-8.2268793 46:50.27118 47:-11.895975 48:-24.843732 49:-12.653242 50:42.291761 51:-128.21539 52:-83.580254 53:622.2618 54:-286.135 55:-46.324638 56:-8.3113664 57:-151.2138 58:101.32239 59:-96.779398 60:-104.24598 61:-52.899725 62:32.158105 63:-14.694326 64:88.574127 65:131.12777 66:95.094018 67:-10.299256 68:-88.533245 69:52.342596 70:87.443151 71:6.8274908 72:10.025672 73:24.781816 74:53.473908 75:-77.126455 76:-44.940709 77:36.109796 78:13.87494 79:-5.1399478 80:-2.6441735 81:18.249213 82:-22.063017 83:-4.2618623 84:21.201439 85:47.615524 86:18.968168 87:33.715217 88:8.5289703 89:-3.2519028 90:-40.61721 91:15.538763 92:8.8201193 93:6.6330353 94:50.813639 95:-14.566165 96:29.020338 97:4.5250666 98:-3.1336801 99:-11.949993 100:17.892693 101:-122.75764 102:-186.16504 103:579.52475 104:-230.91155 105:-170.82129 106:139.07978 107:3.4562126 108:55.154915 109:-77.396755 110:-146.39613 111:-154.54847 112:-74.515129 113:-14.703102 114:-3.3584136 115:62.307314 116:28.385673 117:-9.767488 118:-106.38888 119:16.585152 120:-145.84562 121:-8.7997004 122:-1.3621703 123:-58.165159 124:-1.7163962 125:89.30576 126:31.504318 127:-37.848689 128:-36.90172 129:-23.792586 130:27.763268 131:-73.998016 132:-45.541449 133:14.68002 134:-29.831361 135:25.371077 136:98.345107 137:12.371553 138:17.681342 139:28.0682 140:15.40288 141:-21.058462 142:-20.633995 143:10.37168 144:10.389999 145:9.3422658 146:1.4977863 147:-0.9250607 148:0.62529554 149:-31.321368 150:31.77291 151:-108.18446 152:-346.57363 153:295.9086 154:115.31848 155:-366.30301 156:279.93789 157:318.94541 158:-157.72721 159:94.800456 160:99.206991 161:60.423755 162:-1.463213 163:-12.25085 164:-28.573445 165:82.839498 166:-53.841016 167:-4.5358871 168:-54.060726 169:-30.127859 170:84.135984 171:-82.251481 172:17.735263 173:125.08634 174:-24.984004 175:54.470878 176:30.266285 177:27.661535 178:-36.546769 179:1.3498693 180:8.4143946 181:-49.311531 182:67.618813 183:-0.30855264 184:-24.296903 185:21.693586 186:-21.084742 187:40.321617 188:-50.916521 189:10.126012 190:29.146911 191:-5.3871078 192:28.070099 193:-17.340553 194:14.235163 195:-14.966537 196:29.640693 197:-4.7953681 198:-3.927741 199:-13.65173 200:0.18773492 201:-106.49269 202:-357.15657 203:252.64245 204:167.32609 205:-371.71785 206:267.28417 207:331.99697 208:-180.30279 209:115.64509 210:144.65802 211:115.72623 212:36.047082 213:-11.164607 214:-5.0797289 215:107.33167 216:-35.291237 217:-3.4678733 218:-103.9823 219:-24.959112 220:30.461691 221:-95.158699 222:19.797682 223:64.108026 224:-56.768134 225:25.828412 226:-10.942104 227:58.357746 228:-34.052159 229:-15.021717 230:3.106017 231:-12.878263 232:53.506598 233:-0.65918147 234:-46.816301 235:-4.8157867 236:-33.725618 237:-5.6209628 238:39.335615 239:40.051967 240:0.07392761 241:38.473332 242:-24.728165 243:-21.818924 244:-8.3236507 245:-27.844414 246:-4.5990098 247:-4.7643825 248:0.95062596 249:6.2488888 250:-2.578885 
0.00081247092787873059 1:-180.43563 2:588.12257 3:100.18201 4:102.50702 5:81.542654 6:-137.77332 7:61.741665 8:-110.48802 9:88.417738 10:100.96816 11:42.817527 12:-32.734744 13:-9.118576 14:-47.74697 15:111.53162 16:-61.618841 17:-21.164646 18:71.873348 19:34.332084 20:188.26861 21:-28.679422 22:20.052578 23:-63.513933 24:-76.925744 25:-107.82469 26:-47.783582 27:-9.5375018 28:41.942649 29:-3.1554036 30:-0.77087057 31:9.3554088 32:-18.795062 33:-4.973885 34:-10.968938 35:-56.514861 36:-43.086853 37:24.611801 38:-17.01028 39:-17.825694 40:90.018098 41:-10.576857 42:16.692029 43:25.784479 44:5.8693255 45:-27.862651 46:4.5491323 47:-6.1662368 48:4.7393908 49:35.161333 50:-15.204063 51:-148.87571 52:163.06109 53:566.58583 54:-232.86694 55:104.32498 56:-197.53767 57:-222.72113 58:57.152665 59:-32.6991 60:41.571111 61:93.966967 62:80.353803 63:-18.62024 64:32.17791 65:-187.42921 66:28.357575 67:6.6697349 68:82.122876 69:11.060878 70:1.5571846 71:-11.111831 72:-6.6993223 73:11.177795 74:-63.998454 75:41.836748 76:33.656457 77:-41.609465 78:28.160131 79:8.0187343 80:10.857884 81:-21.076237 82:15.073736 83:-7.8763531 84:29.205187 85:10.623821 86:-19.953879 87:24.385975 88:-17.977538 89:0.73356947 90:-16.007254 91:5.627567 92:13.037469 93:-2.0763981 94:15.943044 95:-19.987722 96:8.6677636 97:-5.9050984 98:-14.563199 99:9.452471 100:-2.1577786 101:-124.8545 102:-153.10935 103:599.1752 104:-257.13352 105:-128.84992 106:92.016178 107:-52.047094 108:76.03936 109:-89.147025 110:-142.56035 111:-131.41109 112:-43.605277 113:-13.406476 114:30.223733 115:106.49139 116:59.473017 117:-7.4314957 118:-141.36756 119:36.901491 120:-93.996929 121:-20.486571 122:5.9324605 123:-21.165205 124:20.348456 125:65.245396 126:29.298888 127:-47.851277 128:34.59103 129:-11.715962 130:6.8417483 131:-29.505191 132:-15.897626 133:-2.1454129 134:0.83136372 135:-32.136736 136:33.346652 137:1.9962517 138:6.9874248 139:15.154122 140:22.36626 141:-40.826159 142:-11.736102 143:-1.0912778 144:-46.840482 145:46.254336 146:-11.052211 147:1.8564646 148:17.01918 149:-51.568663 150:26.96875 151:-110.1136 152:-334.49314 153:339.28499 154:63.441317 155:-357.65389 156:287.38356 157:300.11925 158:-133.04297 159:72.059192 160:52.131097 161:4.4792309 162:-38.304077 163:-13.616786 164:-50.959045 165:47.191842 166:-68.806918 167:-7.2737517 168:0.33121788 169:-33.749878 170:117.77714 171:-59.119786 172:14.492279 173:151.79691 174:0.29972737 175:65.815136 176:56.767657 177:-11.930022 178:-12.979811 179:16.061315 180:5.8541605 181:-57.461179 182:52.502336 183:0.50201347 184:12.754723 185:37.203401 186:6.6856968 187:55.842708 188:-94.890526 189:-26.673436 190:31.185074 191:-25.63215 192:45.312472 193:10.861133 194:25.031364 195:36.643389 196:13.078792 197:3.0212071 198:-3.5677222 199:-2.0173995 200:11.045759 201:-106.5731 202:-356.66829 203:252.72825 204:167.01259 205:-371.67852 206:267.25603 207:331.98923 208:-180.34029 209:115.69669 210:144.72431 211:115.6147 212:35.699593 213:-11.166065 214:-5.535558 215:105.40714 216:-35.122029 217:-3.1280747 218:-104.26248 219:-24.775398 220:31.095855 221:-95.526187 222:19.776737 223:64.900894 224:-56.954683 225:26.285271 226:-10.468313 227:58.771562 228:-33.95114 229:-14.573374 230:3.1738452 231:-12.667834 232:55.853163 233:0.056632269 234:-45.681824 235:-6.3007502 236:-33.494629 237:-8.5379376 238:42.331621 239:41.199731 240:-2.1761947 241:38.689954 242:-23.908708 243:-21.984369 244:-8.1723866 245:-24.852307 246:-5.96211 247:-5.24198 248:-2.1042118 249:7.5473887 250:-2.8033248 
0.203913809585092 1:-191.04995 2:658.55157 3:-74.594305 4:178.84311 5:-25.918048 6:-2.3593418 7:147.87918 8:-98.296388 9:45.850768 10:-10.397347 11:-74.188059 12:-77.228355 13:-5.7101751 14:-41.022616 15:-92.273015 16:19.354939 17:8.8200715 18:-50.460053 19:33.195801 20:-33.27054 21:-24.498027 22:1.5507618 23:19.727968 24:34.783099 25:17.108393 26:19.457937 27:1.7793972 28:1.572623 29:1.2546595 30:-4.6119285 31:15.083593 32:3.5551296 33:0.13920566 34:-6.0340617 35:-16.573254 36:-1.8373993 37:-6.4314344 38:3.7449811 39:-6.0389566 40:-4.2826693 41:10.287616 42:0.68057145 43:8.2744477 44:8.0445524 45:6.8756535 46:1.2645248 47:-4.9712297 48:-10.384174 49:7.614457 50:1.7147254 51:-191.20468 52:658.05777 53:-74.616362 54:178.30082 55:-25.613454 56:-2.4910982 57:147.86059 58:-98.488928 59:46.151324 60:-10.19351 61:-73.9248 62:-77.244032 63:-6.6534641 64:-41.084681 65:-91.782654 66:18.824466 67:9.5911016 68:-49.817348 69:33.168717 70:-32.211778 71:-22.972364 72:1.4707323 73:18.222423 74:33.562462 75:16.120954 76:19.654434 77:0.75138808 78:-0.99046214 79:0.92555215 80:-2.3850732 81:9.9568737 82:5.5808245 83:-0.14716099 84:-4.532423 85:-19.042701 86:1.6578021 87:-4.8296458 88:1.1136244 89:-8.6395685 90:-4.3069011 91:5.9351011 92:3.0518362 93:6.6136135 94:5.629597 95:-1.686932 96:-0.25802553 97:0.55784137 98:-11.816107 99:0.63069795 100:0.73895739 101:-180.63139 102:588.26835 103:100.39957 104:102.2846 105:81.042235 106:-137.61521 107:61.764337 108:-110.49374 109:88.330512 110:100.86313 111:42.623434 112:-32.846686 113:-9.2560043 114:-47.839353 115:111.00598 116:-61.767075 117:-21.177652 118:71.351238 119:34.474339 120:188.87567 121:-28.711729 122:20.121607 123:-64.290677 124:-76.375295 125:-108.23558 126:-48.736411 127:-9.5947873 128:43.006628 129:-3.3037919 130:-0.70152705 131:9.6251335 132:-18.154016 133:-5.4651524 134:-11.069982 135:-57.398595 136:-44.115042 137:25.85321 138:-18.886942 139:-17.554686 140:88.514916 141:-8.9675014 142:14.824144 143:26.194414 144:6.0835764 145:-28.015963 146:3.5438438 147:-5.3587415 148:5.1851219 149:34.16342 150:-16.561384 151:-155.64153 152:271.86143 153:482.25511 154:-162.97194 155:140.04876 156:-236.19122 157:-182.30209 158:7.0159225 159:18.293332 160:110.50472 161:137.45161 162:68.472308 163:-17.687902 164:-10.888307 165:-70.8786 166:-49.513058 167:8.2636758 168:-1.1155484 169:-78.304506 170:-116.02942 171:10.975439 172:-11.88797 173:-36.334424 174:-23.739729 175:-38.288721 176:-90.684541 177:69.175288 178:79.194639 179:-28.902538 180:-8.3083557 181:16.01485 182:62.72748 183:-28.743815 184:-16.451007 185:-13.295378 186:43.529368 187:-33.649555 188:93.325342 189:66.927848 190:10.250491 191:-3.394342 192:-9.6250315 193:11.142905 194:-2.2126498 195:20.522701 196:-29.156194 197:7.2622868 198:12.365513 199:18.728477 200:-38.946715 201:-148.80158 202:162.30427 203:566.44742 204:-233.04212 205:104.25193 206:-197.50702 207:-222.85824 208:57.277498 209:-32.792009 210:41.479777 211:93.9715 212:80.658276 213:-18.496604 214:32.747442 215:-185.02831 216:28.245192 217:5.8886676 218:82.383759 219:9.8614947 220:3.1764255 221:-10.193846 222:-5.8773688 223:10.561899 224:-66.741595 225:41.597942 226:32.32146 227:-42.53378 228:27.398555 229:7.8099472 230:12.056748 231:-23.963514 232:13.483848 233:-12.446116 234:28.628935 235:14.5519 236:-20.048429 237:26.748064 238:-21.007447 239:0.66497918 240:-15.344322 241:5.6031258 242:11.232033 243:-6.5558577 244:16.121633 245:-16.264909 246:4.7922496 247:-1.9530708 248:-10.361723 249:3.5344803 250:-7.0140637 
0.025885776465093876 1:-161.49024 2:384.84926 3:-330.13584 4:33.769134 5:-278.16652 6:263.82555 7:-52.137943 8:152.38746 9:-167.50963 10:-161.19955 11:-13.146374 12:133.03829 13:2.9450291 14:140.13728 15:74.34049 16:52.840356 17:-18.03175 18:124.7665 19:44.643268 20:50.276415 21:-46.685742 22:10.646514 23:-36.840156 24:-20.378753 25:100.87533 26:8.3255938 27:-10.428282 28:5.9199003 29:-31.445301 30:-13.164525 31:43.581253 32:-57.002423 33:9.5201973 34:-30.313849 35:17.401817 36:-34.151633 37:43.651633 38:25.566388 39:10.710702 40:-8.3686423 41:54.241439 42:-46.994915 43:14.977679 44:-22.652923 45:51.174813 46:-18.728438 47:2.2083041 48:-7.0917049 49:34.968025 50:-2.8637085 51:-113.18922 52:-105.2528 53:-433.44205 54:-404.4722 55:-300.74784 56:46.188477 57:-300.73818 58:64.200434 59:22.957426 60:168.84603 61:118.37413 62:-58.134912 63:1.1880558 64:-118.2601 65:83.628581 66:-80.982116 67:-23.45326 68:100.8461 69:122.85683 70:-54.013125 71:-49.555432 72:10.027689 73:-20.973605 74:12.463704 75:-34.030943 76:40.803352 77:16.583812 78:6.9192938 79:5.9928728 80:10.36465 81:-17.372141 82:55.917729 83:-4.1381215 84:8.2733396 85:-39.748007 86:71.605867 87:15.803202 88:-13.746162 89:-22.295788 90:-3.4479259 91:47.446876 92:4.3230492 93:35.782827 94:-40.960463 95:-0.037930465 96:-12.75066 97:-9.4867537 98:-56.021659 99:11.566274 100:40.899646 101:-107.61578 102:-168.18957 103:-418.83071 104:-462.60515 105:-215.1273 106:-102.62227 107:-191.57582 108:-83.094713 109:125.34077 110:178.73881 111:21.541636 112:-137.65867 113:0.46517226 114:-106.83602 115:-4.4692662 116:-4.708372 117:0.60693346 118:-28.173388 119:85.828898 120:53.31604 121:-46.33879 122:15.904933 123:-95.614019 124:99.59902 125:87.762777 126:-39.231026 127:-9.0605759 128:7.2727959 129:-17.859266 130:-11.038879 131:43.267374 132:-41.302763 133:3.823279 134:-3.6110769 135:81.138441 136:-75.785647 137:32.849126 138:-7.9586681 139:37.103024 140:4.9474634 141:-72.089332 142:-71.774377 143:-20.376453 144:7.298479 145:-0.91620734 146:40.581362 147:-15.927171 148:-21.106273 149:2.5813954 150:-1.7636344 151:-98.06456 152:-229.8339 153:-332.92658 154:-437.97993 155:20.199903 156:-336.98198 157:186.89452 158:-285.66209 159:121.25733 160:-70.420289 161:-137.54722 162:21.627375 163:17.386723 164:135.4242 165:33.739408 166:60.533748 167:-1.3531276 168:117.48676 169:21.845425 170:-97.743373 171:-64.154743 172:-0.68215362 173:104.6211 174:-46.030119 175:-7.6987629 176:-15.112448 177:52.518123 178:14.490126 179:-17.442851 180:-20.037067 181:60.532875 182:-47.842243 183:-7.7077938 184:-20.916775 185:42.701913 186:-5.9570572 187:12.962934 188:30.21117 189:-10.37492 190:14.243799 191:-23.251807 192:68.749578 193:4.2249386 194:-31.316684 195:-2.9633996 196:18.648561 197:-2.9498377 198:-17.213611 199:-0.12952301 200:-20.505676 201:-98.076134 202:-229.79827 203:-332.96296 204:-437.85856 205:20.272168 206:-337.125 207:186.76958 208:-285.58707 209:121.14344 210:-70.539085 211:-137.56112 212:21.781584 213:17.364955 214:135.73362 215:33.046681 216:61.113755 217:-1.2371183 218:117.20758 219:22.027063 220:-98.325674 221:-64.455913 222:-0.72346342 223:104.82287 224:-45.792573 225:-5.6114765 226:-14.683822 227:52.425015 228:14.388714 229:-18.120106 230:-20.022301 231:59.718362 232:-47.47014 233:-6.4746763 234:-22.217194 235:41.021123 236:-5.5556006 237:11.537347 238:32.957006 239:-8.8525837 240:14.253211 241:-23.626553 242:69.593155 243:4.9103015 244:-30.89411 245:-2.0863441 246:16.761566 247:-3.1820174 248:-15.198435 249:-1.0603182 250:-23.042199 
0.12763620644696458 1:-190.7395 2:659.0114 3:-74.314401 4:179.06101 5:-25.520085 6:-2.7023757 7:148.20957 8:-98.873173 9:46.157223 10:-10.412854 11:-74.550403 12:-78.0892 13:-4.5439738 14:-41.588928 15:-94.331466 16:19.813532 17:8.205283 18:-51.146112 19:35.087369 20:-33.522093 21:-25.380647 22:1.6086193 23:19.977884 24:35.875472 25:17.340008 26:20.62949 27:0.9551192 28:0.37833598 29:1.543418 30:-4.2562618 31:13.846484 32:5.0832749 33:0.20263803 34:-6.241126 35:-21.482647 36:-3.7026701 37:-4.2662134 38:1.752681 39:-8.3421151 40:-3.8765649 41:6.5430218 42:2.5068194 43:9.6486037 44:9.2033994 45:-1.8306264 46:0.16516222 47:0.99733425 48:-7.6595589 49:1.9766041 50:4.8843065 51:-180.74871 52:588.21459 53:100.08205 54:102.19245 55:82.064497 56:-137.00807 57:61.66247 58:-110.49362 59:89.13743 60:101.2352 61:42.797754 62:-32.766224 63:-8.857492 64:-48.176153 65:110.66765 66:-62.346034 67:-20.760227 68:71.457032 69:35.784205 70:188.03029 71:-28.537092 72:20.187439 73:-64.855794 74:-77.444276 75:-108.91217 76:-47.718411 77:-10.034249 78:41.498323 79:-4.5954254 80:1.3148511 81:6.3137138 82:-16.641726 83:-5.8546938 84:-10.90613 85:-56.624731 86:-38.397833 87:25.666914 88:-17.139533 89:-22.127859 90:89.959535 91:-7.6912026 92:16.056676 93:21.976274 94:4.8050319 95:-29.298461 96:6.019087 97:-4.4139374 98:-3.0319009 99:27.785688 100:-19.525538 101:-152.27017 102:216.65701 103:526.76524 104:-199.7583 105:124.9403 106:-220.13397 107:-205.08353 108:32.440232 109:-6.348747 110:78.746502 111:118.08718 112:73.98618 113:-18.747647 114:6.5165413 115:-142.06326 116:-14.813593 117:8.0775826 118:36.196712 119:-35.939088 120:-63.996754 121:-6.9307495 122:-8.0416507 123:-21.572519 124:-49.04766 125:-1.3686141 126:-42.238998 127:13.307027 128:83.985714 129:-18.760746 130:-4.3280695 131:14.289515 132:24.20565 133:-21.932932 134:-4.7824786 135:5.7092982 136:22.402567 137:6.9519798 138:61.326263 139:46.281176 140:-11.253321 141:47.44113 142:-39.215506 143:19.122192 144:-6.0456995 145:39.111013 146:-53.453189 147:10.56226 148:15.812581 149:27.818557 150:8.2760933 151:-148.80889 152:162.33108 153:566.4569 154:-233.19146 155:104.20011 156:-197.40064 157:-222.72767 158:57.264408 159:-32.817937 160:41.380228 161:93.839118 162:80.48521 163:-18.472168 164:32.394417 165:-184.99413 166:27.769529 167:5.893588 168:82.276259 169:10.155104 170:3.0379613 171:-10.932368 172:-5.742282 173:10.181851 174:-65.709779 175:41.870843 176:32.113886 177:-42.248201 178:27.832099 179:8.0823586 180:12.063557 181:-24.195244 182:15.067382 183:-13.088602 184:30.352332 185:14.43051 186:-18.360887 187:27.058813 188:-22.457207 189:0.29092082 190:-17.507585 191:8.4283262 192:12.457006 193:-6.5211408 194:12.902703 195:-15.336536 196:3.8859694 197:-1.6813277 198:-11.652053 199:3.7586269 200:-5.7779044 201:-138.59721 202:39.466559 203:603.23338 204:-268.00797 205:33.885717 206:-109.26317 207:-198.99066 208:85.426937 209:-69.912652 210:-35.746869 211:19.829138 212:60.030357 213:-15.928746 214:66.414874 215:-44.56108 216:74.282513 217:-4.6884861 218:9.5066624 219:56.104268 220:101.3462 221:-13.634324 222:5.3709152 223:54.579732 224:40.656269 225:-24.685185 226:21.600313 227:55.255687 228:-123.81215 229:10.01729 230:-0.85051675 231:6.2586123 232:5.4721742 233:32.595985 234:-63.190733 235:-11.523722 236:12.558104 237:-80.630253 238:25.744466 239:-21.425539 240:18.026696 241:-13.033587 242:-12.954814 243:21.73153 244:13.514668 245:56.891039 246:-17.411049 247:-7.7896616 248:-25.633252 249:37.063496 250:-6.2991699 
1 1:-191.22371 2:658.7326 3:-74.260278 4:178.94872 5:-25.764126 6:-2.6618983 7:148.0472 8:-98.707562 9:46.172402 10:-10.201326 11:-73.951807 12:-77.531396 13:-7.0630022 14:-41.146114 15:-93.729434 16:19.72305 17:10.87593 18:-49.275319 19:34.715985 20:-32.597737 21:-24.671557 22:-0.37544907 23:19.463476 24:36.600398 25:17.039812 26:20.266067 27:2.2011479 28:-0.015486723 29:0.73902754 30:-5.1159419 31:14.177055 32:3.7453206 33:4.2681885 34:-5.2055619 35:-21.737089 36:-3.8196342 37:-3.7882203 38:3.1145125 39:-7.4102109 40:-3.1916244 41:8.0920984 42:2.9382076 43:11.612571 44:8.6567294 45:-2.5374629 46:2.8998443 47:-3.9714651 48:-9.9310104 49:11.729752 50:5.9765333 51:-191.24829 52:658.52403 53:-74.285481 54:178.75597 55:-25.75662 56:-2.5432432 57:148.09496 58:-98.611612 59:46.11229 60:-10.213312 61:-74.072596 62:-77.566667 63:-6.9444564 64:-41.351116 65:-93.09039 66:19.141289 67:9.7985222 68:-49.795974 69:33.534613 70:-33.440964 71:-24.244211 72:1.1517094 73:19.606684 74:34.819832 75:16.551079 76:19.50199 77:2.2473906 78:0.06259997 79:0.51367675 80:-4.0658197 81:13.107857 82:4.9327675 83:5.6245477 84:-4.6656351 85:-21.235257 86:-3.1763771 87:-5.413943 88:3.3028856 89:-7.5106318 90:-4.7315843 91:2.1554732 92:3.279788 93:11.113312 94:9.8111905 95:-3.7196376 96:3.9725583 97:-1.792715 98:-6.9331198 99:4.0611392 100:4.384553 101:-191.27766 102:658.45018 103:-74.207356 104:178.83901 105:-25.840301 106:-2.5985664 107:148.10161 108:-98.684382 109:46.169264 110:-10.158976 111:-74.122896 112:-77.697132 113:-7.0105233 114:-41.354731 115:-93.681616 116:19.706176 117:9.7255222 118:-50.630202 119:34.126035 120:-33.136899 121:-24.239361 122:1.3224182 123:18.404369 124:34.374501 125:15.976501 126:19.238023 127:1.2138098 128:0.032545422 129:0.68098584 130:-3.4104673 131:12.782674 132:2.5745477 133:2.9624141 134:-4.3661906 135:-18.81148 136:-0.86119532 137:-4.2855724 138:2.7693282 139:-8.6474234 140:-5.9916982 141:5.8700115 142:4.297917 143:11.933048 144:10.757592 145:-0.61640912 146:0.43320657 147:0.23629126 148:-7.9539446 149:5.1249325 150:3.9384747 151:-191.25674 152:658.29828 153:-74.161407 154:178.56939 155:-25.802729 156:-2.5590347 157:147.87929 158:-98.457782 159:45.988412 160:-10.406129 161:-74.285409 162:-77.673345 163:-6.9574362 164:-41.250649 165:-93.263443 166:19.524432 167:9.5328748 168:-49.881026 169:33.6737 170:-31.808935 171:-23.861235 172:1.5013252 173:19.188547 174:33.727649 175:16.080194 176:19.639268 177:0.62567609 178:0.051160123 179:1.1107446 180:-3.512894 181:12.775308 182:3.0160157 183:2.5946718 184:-3.7055482 185:-18.841703 186:-3.5319675 187:-4.0940321 188:1.8393483 189:-7.0982402 190:-5.5907378 191:5.6674558 192:2.9203486 193:6.6834354 194:7.5219752 195:-3.0635166 196:1.6995277 197:0.50264988 198:-7.41347 199:1.5532684 200:3.1783192 201:-162.63911 202:382.64663 203:382.88059 204:-84.079064 205:156.04433 206:-249.56328 207:-126.90713 208:-39.745445 209:59.222472 210:154.88756 211:159.91993 212:60.225158 213:-12.621561 214:-21.406438 215:110.39029 216:-93.076773 217:-1.2776568 218:-30.196291 219:-120.36363 220:-131.82403 221:41.855459 222:-11.140816 223:-29.062761 224:19.967036 225:-5.8875971 226:-66.301059 227:81.933763 228:-41.462036 229:-21.374546 230:-4.3757626 231:-6.6958208 232:49.196861 233:-11.167458 234:12.65784 235:-20.766534 236:-47.671225 237:8.9434732 238:-8.3038774 239:-7.4786412 240:-27.351896 241:-64.542962 242:-10.039133 243:1.3188931 244:-3.4836675 245:-9.5633286 246:48.991699 247:-9.6402383 248:-22.355941 249:-12.078332 250:38.789242 
0.0098091955854804555 1:-148.34971 2:163.47052 3:566.50231 4:-232.58545 5:104.61849 6:-197.64382 7:-222.48822 8:56.860819 9:-32.621963 10:41.357818 11:93.361628 12:79.764288 13:-16.148475 14:31.981573 15:-187.37333 16:28.892867 17:4.6476494 18:80.773649 19:12.560333 20:1.2228364 21:-12.051414 22:-5.7370766 23:10.863386 24:-63.492294 25:42.249619 26:33.962235 27:-42.799163 28:28.981505 29:8.4632715 30:11.092178 31:-21.168468 32:15.161088 33:-12.297978 34:27.056781 35:10.68778 36:-19.991249 37:26.151727 38:-19.820322 39:-0.68869688 40:-15.2976 41:7.754455 42:12.788382 43:-2.5678256 44:17.464278 45:-17.415615 46:4.6897914 47:-1.4966753 48:-13.887889 49:3.9854201 50:-2.2774464 51:-148.4688 52:162.971 53:566.34632 54:-232.77146 55:104.2042 56:-197.37738 57:-222.8617 58:57.342254 59:-32.90582 60:41.432749 61:93.845161 62:80.643975 63:-16.50869 64:32.926209 65:-184.88544 66:28.654493 67:4.6706572 68:81.25193 69:9.9618478 70:1.6031198 71:-10.12127 72:-5.9427674 73:10.204751 74:-64.99654 75:41.782685 76:31.329951 77:-42.24798 78:31.947986 79:8.1178222 80:10.748631 81:-20.541033 82:14.870762 83:-13.088541 84:27.332551 85:17.372528 86:-19.65433 87:27.896863 88:-18.49571 89:3.3250941 90:-13.278392 91:11.569579 92:11.239288 93:-4.0362977 94:14.542289 95:-7.0794438 96:6.0622392 97:-8.6039049 98:-17.145877 99:10.361503 100:-3.4835458 101:-148.64695 102:162.63561 103:566.05028 104:-233.15683 105:104.12675 106:-197.20173 107:-222.87297 108:57.415556 109:-32.776259 110:41.548756 111:93.882663 112:80.656062 113:-17.704679 114:32.280646 115:-185.87738 116:28.090373 117:5.8076684 118:81.948263 119:10.681057 120:2.1349312 121:-10.358225 122:-5.8802377 123:10.485489 124:-65.5169 125:40.554811 126:32.665224 127:-42.649657 128:29.476004 129:7.9124331 130:12.29507 131:-22.792602 132:13.836894 133:-11.484893 134:25.105427 135:12.707949 136:-18.466949 137:25.133124 138:-20.643202 139:-1.1111249 140:-15.445594 141:8.1661142 142:13.796826 143:-4.8093498 144:17.946288 145:-16.51941 146:5.4382086 147:0.42667304 148:-14.389375 149:3.2007206 150:-5.6357003 151:-124.89667 152:-153.6704 153:598.68034 154:-257.39029 155:-127.90296 156:92.822887 157:-52.105027 158:76.203883 159:-88.420011 160:-142.22189 161:-131.13257 162:-43.253107 163:-12.870462 164:30.077775 165:107.66894 166:58.213101 167:-7.1018987 168:-141.26457 169:37.629391 170:-94.62003 171:-20.089769 172:6.0888534 173:-22.840856 174:19.710922 175:64.532592 176:28.830766 177:-47.610077 178:33.219668 179:-13.318225 180:8.7588886 181:-33.208361 182:-13.544623 183:-5.2157962 184:0.038498389 185:-31.40938 186:39.798542 187:2.0739911 188:7.3432848 189:11.634633 190:23.354511 191:-39.566496 192:-13.252688 193:-5.3118519 194:-50.582525 195:46.801411 196:-11.55067 197:3.2726014 198:12.474995 199:-58.738672 200:21.448613 201:-106.49707 202:-356.92469 203:252.51088 204:166.71519 205:-371.71567 206:267.57424 207:331.97249 208:-180.10377 209:115.59775 210:144.52126 211:115.51746 212:35.953067 213:-10.992752 214:-5.2130966 215:106.86882 216:-35.517342 217:-3.1637195 218:-104.41471 219:-24.82534 220:31.755267 221:-95.26881 222:19.92539 223:64.376581 224:-55.554712 225:26.2129 226:-10.974452 227:57.225289 228:-32.554207 229:-14.296553 230:3.0517816 231:-12.329952 232:54.074488 233:-3.9849686 234:-46.178575 235:-5.4799776 236:-32.784477 237:-7.0050544 238:38.618844 239:40.127647 240:-2.5362277 241:37.707664 242:-27.220693 243:-20.556276 244:-6.7314924 245:-25.207513 246:-6.4861895 247:-3.8681396 248:1.1079923 249:6.0607375 250:-5.1687612 
